{"learner":{"attributes":{"scikit_learn":"{\"_estimator_type\": \"regressor\"}"},"feature_names":["hour","dayofweek","quarter","month","year","dayofyear","dayofmonth"],"feature_types":["int","int","int","int","int","int","int"],"gradient_booster":{"model":{"gbtree_model_param":{"num_parallel_tree":"1","num_trees":"1000"},"iteration_indptr":[0,1,2,3,4,5,6,7,8,9,10,11,12,13,14,15,16,17,18,19,20,21,22,23,24,25,26,27,28,29,30,31,32,33,34,35,36,37,38,39,40,41,42,43,44,45,46,47,48,49,50,51,52,53,54,55,56,57,58,59,60,61,62,63,64,65,66,67,68,69,70,71,72,73,74,75,76,77,78,79,80,81,82,83,84,85,86,87,88,89,90,91,92,93,94,95,96,97,98,99,100,101,102,103,104,105,106,107,108,109,110,111,112,113,114,115,116,117,118,119,120,121,122,123,124,125,126,127,128,129,130,131,132,133,134,135,136,137,138,139,140,141,142,143,144,145,146,147,148,149,150,151,152,153,154,155,156,157,158,159,160,161,162,163,164,165,166,167,168,169,170,171,172,173,174,175,176,177,178,179,180,181,182,183,184,185,186,187,188,189,190,191,192,193,194,195,196,197,198,199,200,201,202,203,204,205,206,207,208,209,210,211,212,213,214,215,216,217,218,219,220,221,222,223,224,225,226,227,228,229,230,231,232,233,234,235,236,237,238,239,240,241,242,243,244,245,246,247,248,249,250,251,252,253,254,255,256,257,258,259,260,261,262,263,264,265,266,267,268,269,270,271,272,273,274,275,276,277,278,279,280,281,282,283,284,285,286,287,288,289,290,291,292,293,294,295,296,297,298,299,300,301,302,303,304,305,306,307,308,309,310,311,312,313,314,315,316,317,318,319,320,321,322,323,324,325,326,327,328,329,330,331,332,333,334,335,336,337,338,339,340,341,342,343,344,345,346,347,348,349,350,351,352,353,354,355,356,357,358,359,360,361,362,363,364,365,366,367,368,369,370,371,372,373,374,375,376,377,378,379,380,381,382,383,384,385,386,387,388,389,390,391,392,393,394,395,396,397,398,399,400,401,402,403,404,405,406,407,408,409,410,411,412,413,414,415,416,417,418,419,420,421,422,423,424,425,426,427,428,429,430,431,432,433,434,435,436,437,438,439,440,441,442,443,444,445,446,447,448,449,450,451,452,453,454,455,456,457,458,459,460,461,462,463,464,465,466,467,468,469,470,471,472,473,474,475,476,477,478,479,480,481,482,483,484,485,486,487,488,489,490,491,492,493,494,495,496,497,498,499,500,501,502,503,504,505,506,507,508,509,510,511,512,513,514,515,516,517,518,519,520,521,522,523,524,525,526,527,528,529,530,531,532,533,534,535,536,537,538,539,540,541,542,543,544,545,546,547,548,549,550,551,552,553,554,555,556,557,558,559,560,561,562,563,564,565,566,567,568,569,570,571,572,573,574,575,576,577,578,579,580,581,582,583,584,585,586,587,588,589,590,591,592,593,594,595,596,597,598,599,600,601,602,603,604,605,606,607,608,609,610,611,612,613,614,615,616,617,618,619,620,621,622,623,624,625,626,627,628,629,630,631,632,633,634,635,636,637,638,639,640,641,642,643,644,645,646,647,648,649,650,651,652,653,654,655,656,657,658,659,660,661,662,663,664,665,666,667,668,669,670,671,672,673,674,675,676,677,678,679,680,681,682,683,684,685,686,687,688,689,690,691,692,693,694,695,696,697,698,699,700,701,702,703,704,705,706,707,708,709,710,711,712,713,714,715,716,717,718,719,720,721,722,723,724,725,726,727,728,729,730,731,732,733,734,735,736,737,738,739,740,741,742,743,744,745,746,747,748,749,750,751,752,753,754,755,756,757,758,759,760,761,762,763,764,765,766,767,768,769,770,771,772,773,774,775,776,777,778,779,780,781,782,783,784,785,786,787,788,789,790,791,792,793,794,795,796,797,798,799,800,801,802,803,804,805,806,807,808,809,810,811,812,813,814,815,816,817,818,819,820,821,822,823,824,825,826,827,828,829,830,831,832,833,834,835,836,837,838,839,840,841,842,843,844,845,846,847,848,849,850,851,852,853,854,855,856,857,858,859,860,861,862,863,864,865,866,867,868,869,870,871,872,873,874,875,876,877,878,879,880,881,882,883,884,885,886,887,888,889,890,891,892,893,894,895,896,897,898,899,900,901,902,903,904,905,906,907,908,909,910,911,912,913,914,915,916,917,918,919,920,921,922,923,924,925,926,927,928,929,930,931,932,933,934,935,936,937,938,939,940,941,942,943,944,945,946,947,948,949,950,951,952,953,954,955,956,957,958,959,960,961,962,963,964,965,966,967,968,969,970,971,972,973,974,975,976,977,978,979,980,981,982,983,984,985,986,987,988,989,990,991,992,993,994,995,996,997,998,999,1000],"tree_info":[0,0,0,0,0,0,0,0,0,0,0,0,0,0,0,0,0,0,0,0,0,0,0,0,0,0,0,0,0,0,0,0,0,0,0,0,0,0,0,0,0,0,0,0,0,0,0,0,0,0,0,0,0,0,0,0,0,0,0,0,0,0,0,0,0,0,0,0,0,0,0,0,0,0,0,0,0,0,0,0,0,0,0,0,0,0,0,0,0,0,0,0,0,0,0,0,0,0,0,0,0,0,0,0,0,0,0,0,0,0,0,0,0,0,0,0,0,0,0,0,0,0,0,0,0,0,0,0,0,0,0,0,0,0,0,0,0,0,0,0,0,0,0,0,0,0,0,0,0,0,0,0,0,0,0,0,0,0,0,0,0,0,0,0,0,0,0,0,0,0,0,0,0,0,0,0,0,0,0,0,0,0,0,0,0,0,0,0,0,0,0,0,0,0,0,0,0,0,0,0,0,0,0,0,0,0,0,0,0,0,0,0,0,0,0,0,0,0,0,0,0,0,0,0,0,0,0,0,0,0,0,0,0,0,0,0,0,0,0,0,0,0,0,0,0,0,0,0,0,0,0,0,0,0,0,0,0,0,0,0,0,0,0,0,0,0,0,0,0,0,0,0,0,0,0,0,0,0,0,0,0,0,0,0,0,0,0,0,0,0,0,0,0,0,0,0,0,0,0,0,0,0,0,0,0,0,0,0,0,0,0,0,0,0,0,0,0,0,0,0,0,0,0,0,0,0,0,0,0,0,0,0,0,0,0,0,0,0,0,0,0,0,0,0,0,0,0,0,0,0,0,0,0,0,0,0,0,0,0,0,0,0,0,0,0,0,0,0,0,0,0,0,0,0,0,0,0,0,0,0,0,0,0,0,0,0,0,0,0,0,0,0,0,0,0,0,0,0,0,0,0,0,0,0,0,0,0,0,0,0,0,0,0,0,0,0,0,0,0,0,0,0,0,0,0,0,0,0,0,0,0,0,0,0,0,0,0,0,0,0,0,0,0,0,0,0,0,0,0,0,0,0,0,0,0,0,0,0,0,0,0,0,0,0,0,0,0,0,0,0,0,0,0,0,0,0,0,0,0,0,0,0,0,0,0,0,0,0,0,0,0,0,0,0,0,0,0,0,0,0,0,0,0,0,0,0,0,0,0,0,0,0,0,0,0,0,0,0,0,0,0,0,0,0,0,0,0,0,0,0,0,0,0,0,0,0,0,0,0,0,0,0,0,0,0,0,0,0,0,0,0,0,0,0,0,0,0,0,0,0,0,0,0,0,0,0,0,0,0,0,0,0,0,0,0,0,0,0,0,0,0,0,0,0,0,0,0,0,0,0,0,0,0,0,0,0,0,0,0,0,0,0,0,0,0,0,0,0,0,0,0,0,0,0,0,0,0,0,0,0,0,0,0,0,0,0,0,0,0,0,0,0,0,0,0,0,0,0,0,0,0,0,0,0,0,0,0,0,0,0,0,0,0,0,0,0,0,0,0,0,0,0,0,0,0,0,0,0,0,0,0,0,0,0,0,0,0,0,0,0,0,0,0,0,0,0,0,0,0,0,0,0,0,0,0,0,0,0,0,0,0,0,0,0,0,0,0,0,0,0,0,0,0,0,0,0,0,0,0,0,0,0,0,0,0,0,0,0,0,0,0,0,0,0,0,0,0,0,0,0,0,0,0,0,0,0,0,0,0,0,0,0,0,0,0,0,0,0,0,0,0,0,0,0,0,0,0,0,0,0,0,0,0,0,0,0,0,0,0,0,0,0,0,0,0,0,0,0,0,0,0,0,0,0,0,0,0,0,0,0,0,0,0,0,0,0,0,0,0,0,0,0,0,0,0,0,0,0,0,0,0,0,0,0,0,0,0,0,0,0,0,0,0,0,0,0,0,0,0,0,0,0,0,0,0,0,0,0,0,0,0,0,0,0,0,0,0,0,0,0,0,0,0,0,0,0,0,0,0,0,0,0,0,0,0,0,0,0,0,0,0,0,0,0,0,0,0,0,0,0,0,0,0,0,0,0,0,0,0,0,0,0,0,0,0,0,0,0,0,0,0,0,0,0,0,0,0,0,0,0,0,0,0,0,0,0,0,0,0,0,0,0,0,0,0,0,0,0,0,0,0,0,0,0,0,0,0,0,0,0,0,0,0,0,0,0,0,0,0,0,0,0,0,0,0,0,0,0,0,0,0,0,0,0,0,0,0,0,0,0,0,0,0,0,0,0,0,0,0,0,0,0,0,0,0,0,0,0,0,0],"trees":[{"base_weights":[-4.787816E-4,-1.7020303E3,7.2596777E3,-1.1324822E3,-2.866351E3,6.1112275E3,3.3382532E3,-1.9774044E3,1.2529156E2,-3.1171326E3,-5.9584644E2,1.3554375E3,2.0955125E3,-9.4227673E2,-2.8765784E3,5.571859E2,-1.4012892E2,-1.0242924E3,-6.8415576E2,-3.0420587E2,7.583154E1,-4.4395282E2,-6.688066E2,-2.909294E3,-2.1556407E2,6.596019E2,1.4188354E2,-1.2194239E1,3.8462112E1,9.8535355E1,-3.4019855E2,-8.94502E2,-4.3202432E2,3.689219E1,2.0928398E2,6.98291E1,2.183887E1],"categories":[],"categories_nodes":[],"categories_segments":[],"categories_sizes":[],"default_left":[0,0,0,0,0,0,0,0,0,0,0,0,0,0,0,0,0,0,0,0,0,0,0,0,0,0,0,0,0,0,0,0,0,0,0,0,0],"id":0,"left_children":[1,3,5,7,9,11,-1,13,15,17,19,-1,-1,21,23,25,-1,-1,-1,-1,27,-1,29,31,-1,33,35,-1,-1,-1,-1,-1,-1,-1,-1,-1,-1],"loss_changes":[3.1878966E9,1.3534944E8,1.4965606E8,1.5115414E8,3.6862016E7,2.4123648E7,0E0,7.640406E7,1.5099502E7,7.379456E6,2.3239158E6,0E0,0E0,5.037608E6,1.08656E6,1.352556E6,0E0,0E0,0E0,0E0,2.9613871E4,0E0,1.3825937E7,3.85152E5,0E0,4.64957E5,3.3285016E4,0E0,0E0,0E0,0E0,0E0,0E0,0E0,0E0,0E0,0E0],"parents":[2147483647,0,0,1,1,2,2,3,3,4,4,5,5,7,7,8,8,9,9,10,10,13,13,14,14,15,15,20,20,22,22,23,23,25,25,26,26],"right_children":[2,4,6,8,10,12,-1,14,16,18,20,-1,-1,22,24,26,-1,-1,-1,-1,28,-1,30,32,-1,34,36,-1,-1,-1,-1,-1,-1,-1,-1,-1,-1],"split_conditions":[2.97E2,2.3E2,3.36E2,1.73E2,2.9E2,3.13E2,3.3382532E3,1.29E2,2.06E2,2.72E2,2.94E2,1.3554375E3,2.0955125E3,1.01E2,1.72E2,1.99E2,-1.4012892E2,-1.0242924E3,-6.8415576E2,-3.0420587E2,2.95E2,-4.4395282E2,1.1E2,2.9E1,-2.1556407E2,1.75E2,2E0,-1.2194239E1,3.8462112E1,9.8535355E1,-3.4019855E2,-8.94502E2,-4.3202432E2,3.689219E1,2.0928398E2,6.98291E1,2.183887E1],"split_indices":[5,5,5,5,5,5,0,5,5,5,5,0,0,5,5,5,0,0,0,0,5,0,5,6,0,5,1,0,0,0,0,0,0,0,0,0,0],"split_type":[0,0,0,0,0,0,0,0,0,0,0,0,0,0,0,0,0,0,0,0,0,0,0,0,0,0,0,0,0,0,0,0,0,0,0,0,0],"sum_hessian":[2.56E2,2.08E2,4.8E1,1.41E2,6.7E1,3.9E1,9E0,8.4E1,5.7E1,6E1,7E0,1.6E1,2.3E1,4E1,4.4E1,3.3E1,2.4E1,4.2E1,1.8E1,4E0,3E0,1.2E1,2.8E1,4.3E1,1E0,2.6E1,7E0,1E0,2E0,9E0,1.9E1,4E1,3E0,2E0,2.4E1,2E0,5E0],"tree_param":{"num_deleted":"0","num_feature":"7","num_nodes":"37","size_leaf_vector":"1"}},{"base_weights":[1.0789116E1,-1.195632E3,5.2886562E3,-8.07033E2,-1.9780292E3,4.502307E3,2.5972842E3,-1.4103912E3,9.111321E1,-2.2099995E3,-1.860039E2,1.0050104E3,1.5317283E3,-7.1337445E2,-2.1070186E3,3.9996713E2,-3.3257266E2,-2.394036E3,-4.6283115E2,-2.3119664E2,4.3584845E2,-3.2101196E2,-5.461862E2,-2.128616E3,-1.832294E2,4.7867572E2,1.2814606E2,-1.1181055E2,-3.4690802E2,-7.361579E2,-3.4572614E2,5.9648438E1,2.910973E2,7.193086E1,-2.5924768E2,-5.4118304E2,-7.56951E2,2.9513674E1,1.518804E2,6.1930225E1,1.6378908E1,-5.929131E1,8.9765625E0,-1.18142456E2,-7.396712E1,-1.0365234E1,3.0769531E1],"categories":[],"categories_nodes":[],"categories_segments":[],"categories_sizes":[],"default_left":[0,0,0,0,0,0,0,0,0,0,0,0,0,0,0,0,0,0,0,0,0,0,0,0,0,0,0,0,0,0,0,0,0,0,0,0,0,0,0,0,0,0,0,0,0,0,0],"id":1,"left_children":[1,3,5,7,9,11,-1,13,15,17,19,-1,-1,21,23,25,27,29,-1,-1,31,-1,33,35,-1,37,39,41,43,-1,-1,45,-1,-1,-1,-1,-1,-1,-1,-1,-1,-1,-1,-1,-1,-1,-1],"loss_changes":[1.642727E9,6.2251776E7,8.818112E7,7.707885E7,2.8272032E7,1.1404608E7,0E0,3.97696E7,7.722727E6,3.797024E6,3.6079915E6,0E0,0E0,2.03929E6,5.7136E4,6.660775E5,4.032975E4,5.88896E5,0E0,0E0,9.4747056E5,0E0,8.204398E6,7.00496E5,0E0,2.23018E5,4.0552016E4,4.2407168E4,1.115275E4,0E0,0E0,1.9714572E4,0E0,0E0,0E0,0E0,0E0,0E0,0E0,0E0,0E0,0E0,0E0,0E0,0E0,0E0,0E0],"parents":[2147483647,0,0,1,1,2,2,3,3,4,4,5,5,7,7,8,8,9,9,10,10,13,13,14,14,15,15,16,16,17,17,20,20,22,22,23,23,25,25,26,26,27,27,28,28,31,31],"right_children":[2,4,6,8,10,12,-1,14,16,18,20,-1,-1,22,24,26,28,30,-1,-1,32,-1,34,36,-1,38,40,42,44,-1,-1,46,-1,-1,-1,-1,-1,-1,-1,-1,-1,-1,-1,-1,-1,-1,-1],"split_conditions":[2.98E2,2.3E2,3.38E2,1.73E2,2.9E2,3.14E2,2.5972842E3,1.32E2,2.06E2,2.75E2,2.94E2,1.0050104E3,1.5317283E3,1.01E2,1.72E2,1.98E2,3E0,3E1,-4.6283115E2,-2.3119664E2,2.97E2,-3.2101196E2,1.1E2,1.57E2,-1.832294E2,1.75E2,2E0,2E0,2.21E2,-7.361579E2,-3.4572614E2,2.95E2,2.910973E2,7.193086E1,-2.5924768E2,-5.4118304E2,-7.56951E2,2.9513674E1,1.518804E2,6.1930225E1,1.6378908E1,-5.929131E1,8.9765625E0,-1.18142456E2,-7.396712E1,-1.0365234E1,3.0769531E1],"split_indices":[5,5,5,5,5,5,0,5,5,5,5,0,0,5,5,5,6,6,0,0,5,0,5,5,0,5,1,1,5,0,0,5,0,0,0,0,0,0,0,0,0,0,0,0,0,0,0],"split_type":[0,0,0,0,0,0,0,0,0,0,0,0,0,0,0,0,0,0,0,0,0,0,0,0,0,0,0,0,0,0,0,0,0,0,0,0,0,0,0,0,0,0,0,0,0,0,0],"sum_hessian":[2.56E2,2.09E2,4.7E1,1.41E2,6.8E1,4E1,7E0,8.4E1,5.7E1,6E1,8E0,1.6E1,2.4E1,4.3E1,4.1E1,3.3E1,2.4E1,4.5E1,1.5E1,4E0,4E0,1.2E1,3.1E1,4E1,1E0,2.5E1,8E0,2E0,2.2E1,4.2E1,3E0,3E0,1E0,9E0,2.2E1,2.5E1,1.5E1,2E0,2.3E1,3E0,5E0,1E0,1E0,1.3E1,9E0,1E0,2E0],"tree_param":{"num_deleted":"0","num_feature":"7","num_nodes":"47","size_leaf_vector":"1"}},{"base_weights":[1.4156539E1,-8.652834E2,3.7649482E3,-5.7881335E2,-1.4507756E3,3.201841E3,2.0058558E3,-1.0106818E3,6.407698E1,-1.5723225E3,-3.4263354E2,5.6717267E2,1.0480007E3,-5.1091507E2,-1.5101832E3,2.8761505E2,-2.424979E2,-1.8560005E3,-1.2753835E3,-1.7570929E2,4.685498E1,-2.3211641E2,-3.8818396E2,-4.660538E2,-2.1305275E2,3.5506284E2,1.1430948E2,-2.101487E2,-1.2290274E2,-5.785402E2,-1.7554005E2,-2.5434349E2,-4.273269E2,-8.81045E0,2.4615627E1,5.250932E1,-1.8485475E2,9.340693E1,2.0404659E2,4.9529533E1,1.8510519E1,-7.992334E1,-2.1406569E1],"categories":[],"categories_nodes":[],"categories_segments":[],"categories_sizes":[],"default_left":[0,0,0,0,0,0,0,0,0,0,0,0,0,0,0,0,0,0,0,0,0,0,0,0,0,0,0,0,0,0,0,0,0,0,0,0,0,0,0,0,0,0,0],"id":2,"left_children":[1,3,5,7,9,11,-1,13,15,17,19,-1,-1,21,23,25,27,29,31,-1,33,-1,35,-1,-1,37,39,41,-1,-1,-1,-1,-1,-1,-1,-1,-1,-1,-1,-1,-1,-1,-1],"loss_changes":[8.509969E8,3.421499E7,5.919539E7,3.9490216E7,8.620272E6,9.83136E6,0E0,2.0447328E7,4.0445532E6,2.771232E6,7.8480825E5,0E0,0E0,1.118853E6,3.52624E5,3.5684175E5,4.9108875E4,1.542352E6,8.95292E5,0E0,1.3141055E4,0E0,4.217041E6,0E0,0E0,1.2923625E5,1.9203953E4,1.6059388E5,0E0,0E0,0E0,0E0,0E0,0E0,0E0,0E0,0E0,0E0,0E0,0E0,0E0,0E0,0E0],"parents":[2147483647,0,0,1,1,2,2,3,3,4,4,5,5,7,7,8,8,9,9,10,10,13,13,14,14,15,15,16,16,17,17,18,18,20,20,22,22,25,25,26,26,27,27],"right_children":[2,4,6,8,10,12,-1,14,16,18,20,-1,-1,22,24,26,28,30,32,-1,34,-1,36,-1,-1,38,40,42,-1,-1,-1,-1,-1,-1,-1,-1,-1,-1,-1,-1,-1,-1,-1],"split_conditions":[2.97E2,2.3E2,3.39E2,1.73E2,2.9E2,3.06E2,2.0058558E3,1.32E2,2.06E2,2.58E2,2.94E2,5.6717267E2,1.0480007E3,1.01E2,2.9E1,1.96E2,2.28E2,3E1,1.1E1,-1.7570929E2,2.95E2,-2.3211641E2,1.1E2,-4.660538E2,-2.1305275E2,1.95E2,2E2,2.21E2,-1.2290274E2,-5.785402E2,-1.7554005E2,-2.5434349E2,-4.273269E2,-8.81045E0,2.4615627E1,5.250932E1,-1.8485475E2,9.340693E1,2.0404659E2,4.9529533E1,1.8510519E1,-7.992334E1,-2.1406569E1],"split_indices":[5,5,5,5,5,5,0,5,5,5,5,0,0,5,6,5,5,6,6,0,5,0,5,0,0,5,5,5,0,0,0,0,0,0,0,0,0,0,0,0,0,0,0],"split_type":[0,0,0,0,0,0,0,0,0,0,0,0,0,0,0,0,0,0,0,0,0,0,0,0,0,0,0,0,0,0,0,0,0,0,0,0,0,0,0,0,0,0,0],"sum_hessian":[2.56E2,2.08E2,4.8E1,1.41E2,6.7E1,4.2E1,6E0,8.4E1,5.7E1,6E1,7E0,9E0,3.3E1,4.3E1,4.1E1,3.3E1,2.4E1,2.8E1,3.2E1,4E0,3E0,1.2E1,3.1E1,3.8E1,3E0,2.3E1,1E1,2.2E1,2E0,2.6E1,2E0,1E1,2.2E1,1E0,2E0,9E0,2.2E1,2.2E1,1E0,4E0,6E0,1.5E1,7E0],"tree_param":{"num_deleted":"0","num_feature":"7","num_nodes":"43","size_leaf_vector":"1"}},{"base_weights":[1.4279905E1,-6.176499E2,2.7093625E3,-4.0929684E2,-1.0344635E3,1.9810414E3,3.9637883E3,-7.197539E2,6.084608E1,-1.1177311E3,-2.5983154E2,3.505799E2,6.354908E2,8.8953375E2,1.4900645E3,-3.3593655E2,-1.0534596E3,2.1208093E2,-1.5593855E2,-1.3052095E3,-9.1342554E2,-1.3353914E2,3.675E1,-4.612253E2,5.280111E0,-2.5663248E2,-1.3292869E3,4.1912402E2,1.619313E2,-1.9148254E2,-7.5422745E1,-1.3482844E3,-1.4043184E2,-6.3136835E2,-3.0772668E2,-7.4888673E0,1.969258E1,-8.015569E1,-2.884309E2,-8.594684E1,5.6092823E1,-4.245609E2,-1.3698322E2,3.7955276E1,1.3570255E2,5.094825E0,5.7426395E1,-3.573346E1,-8.0254524E1,2.7732424E1,-4.0976955E1,-1.4882677E2,-4.1842728E2,-8.040254E1,-2.0317184E2],"categories":[],"categories_nodes":[],"categories_segments":[],"categories_sizes":[],"default_left":[0,0,0,0,0,0,0,0,0,0,0,0,0,0,0,0,0,0,0,0,0,0,0,0,0,0,0,0,0,0,0,0,0,0,0,0,0,0,0,0,0,0,0,0,0,0,0,0,0,0,0,0,0,0,0],"id":3,"left_children":[1,3,5,7,9,11,13,15,17,19,21,-1,-1,-1,-1,23,25,27,29,31,33,-1,35,37,39,-1,41,43,45,47,49,51,-1,53,-1,-1,-1,-1,-1,-1,-1,-1,-1,-1,-1,-1,-1,-1,-1,-1,-1,-1,-1,-1,-1],"loss_changes":[4.3937094E8,1.772708E7,3.69152E7,2.062404E7,4.160192E6,1.204608E6,2.302656E6,1.0533076E7,1.901839E6,1.182568E6,4.560085E5,0E0,0E0,0E0,0E0,1.7552105E6,1.320716E6,2.8515725E5,5.4242375E4,4.50612E5,3.97928E5,0E0,8.770629E3,2.654942E6,6.897269E5,0E0,6.28412E5,1.08925E3,1.2071056E5,5.6176688E4,1.0503642E5,4.16992E5,0E0,1.8507E4,0E0,0E0,0E0,0E0,0E0,0E0,0E0,0E0,0E0,0E0,0E0,0E0,0E0,0E0,0E0,0E0,0E0,0E0,0E0,0E0,0E0],"parents":[2147483647,0,0,1,1,2,2,3,3,4,4,5,5,6,6,7,7,8,8,9,9,10,10,15,15,16,16,17,17,18,18,19,19,20,20,22,22,23,23,24,24,26,26,27,27,28,28,29,29,30,30,31,31,33,33],"right_children":[2,4,6,8,10,12,14,16,18,20,22,-1,-1,-1,-1,24,26,28,30,32,34,-1,36,38,40,-1,42,44,46,48,50,52,-1,54,-1,-1,-1,-1,-1,-1,-1,-1,-1,-1,-1,-1,-1,-1,-1,-1,-1,-1,-1,-1,-1],"split_conditions":[2.97E2,2.29E2,3.29E2,1.73E2,2.9E2,3.03E2,3.39E2,1.29E2,2.06E2,2.58E2,2.94E2,3.505799E2,6.354908E2,8.8953375E2,1.4900645E3,1.18E2,1.57E2,6E0,2.21E2,3E1,1.2E1,-1.3353914E2,2.95E2,1.11E2,3E0,-2.5663248E2,1.71E2,1.83E2,1.1E1,2.15E2,2.23E2,2.31E2,-1.4043184E2,1E0,-3.0772668E2,-7.4888673E0,1.969258E1,-8.015569E1,-2.884309E2,-8.594684E1,5.6092823E1,-4.245609E2,-1.3698322E2,3.7955276E1,1.3570255E2,5.094825E0,5.7426395E1,-3.573346E1,-8.0254524E1,2.7732424E1,-4.0976955E1,-1.4882677E2,-4.1842728E2,-8.040254E1,-2.0317184E2],"split_indices":[5,5,5,5,5,5,5,5,5,5,5,0,0,0,0,5,5,6,5,6,6,0,5,5,1,0,5,5,6,5,5,5,0,1,0,0,0,0,0,0,0,0,0,0,0,0,0,0,0,0,0,0,0,0,0],"split_type":[0,0,0,0,0,0,0,0,0,0,0,0,0,0,0,0,0,0,0,0,0,0,0,0,0,0,0,0,0,0,0,0,0,0,0,0,0,0,0,0,0,0,0,0,0,0,0,0,0,0,0,0,0,0,0],"sum_hessian":[2.56E2,2.08E2,4.8E1,1.4E2,6.8E1,3.2E1,1.6E1,8.4E1,5.6E1,6.1E1,7E0,6E0,2.6E1,1E1,6E0,4E1,4.4E1,3.3E1,2.3E1,2.9E1,3.2E1,4E0,3E0,2.9E1,1.1E1,2.8E1,1.6E1,5E0,2.8E1,1.5E1,8E0,2.7E1,2E0,1.1E1,2.1E1,1E0,2E0,2.2E1,7E0,4E0,7E0,1.4E1,2E0,1E0,4E0,5E0,2.3E1,9E0,6E0,2E0,6E0,2E0,2.5E1,2E0,9E0],"tree_param":{"num_deleted":"0","num_feature":"7","num_nodes":"55","size_leaf_vector":"1"}},{"base_weights":[1.3247568E1,-4.388588E2,1.9909369E3,-2.9437762E2,-7.236158E2,1.3813522E3,2.848653E3,-5.181407E2,4.446868E1,-7.8929614E2,1.08524414E2,1.4036636E3,1.10148636E2,6.66146E2,1.1518798E3,-2.5040602E2,-7.619297E2,1.895505E2,-9.242331E1,-9.4270966E2,-6.477208E2,-1.6130468E1,1.0976983E2,3.3892468E2,4.9616568E2,-4.854689E2,-1.4019856E2,-1.9018259E2,-1.0504019E3,9.484144E1,1.406567E2,-3.3858817E0,-1.1454159E2,-9.7093054E2,-1.1234551E2,-4.4183398E2,-6.9811896E2,-7.939713E1,1.5753906E1,-4.2852345E1,-1.6043379E2,5.997387E1,-8.864409E1,-3.8642606E2,-1.7941075E2,-1.2154337E1,5.495033E1,9.443702E0,-1.122129E1,-4.2386024E1,-1.628034E1,-1.1906152E2,-3.0029413E2,-1.5747632E2,-5.5791946E1,-1.43028E2,-2.2884737E2,-2.9363087E1,-6.3656254E0],"categories":[],"categories_nodes":[],"categories_segments":[],"categories_sizes":[],"default_left":[0,0,0,0,0,0,0,0,0,0,0,0,0,0,0,0,0,0,0,0,0,0,0,0,0,0,0,0,0,0,0,0,0,0,0,0,0,0,0,0,0,0,0,0,0,0,0,0,0,0,0,0,0,0,0,0,0,0,0],"id":4,"left_children":[1,3,5,7,9,11,13,15,17,19,21,23,-1,-1,-1,25,27,29,31,33,35,37,-1,-1,-1,39,41,-1,43,-1,45,47,49,51,-1,53,55,57,-1,-1,-1,-1,-1,-1,-1,-1,-1,-1,-1,-1,-1,-1,-1,-1,-1,-1,-1,-1,-1],"loss_changes":[2.306641E8,8.426808E6,2.116184E7,1.0713844E7,3.911524E6,1.63464E5,3.301328E6,5.357224E6,1.1495696E6,8.01164E5,1.9840044E5,1.19168E5,0E0,0E0,0E0,1.01997625E6,9.58626E5,1.28834875E5,5.8692812E4,1.0144E5,7.5471E4,2.5883605E4,0E0,0E0,0E0,1.43248E5,1.6434631E6,0E0,5.19925E5,0E0,1.768601E5,9.479787E3,3.1021438E4,6.85E4,0E0,1.14966125E5,3.7365E4,1.1485527E3,0E0,0E0,0E0,0E0,0E0,0E0,0E0,0E0,0E0,0E0,0E0,0E0,0E0,0E0,0E0,0E0,0E0,0E0,0E0,0E0,0E0],"parents":[2147483647,0,0,1,1,2,2,3,3,4,4,5,5,6,6,7,7,8,8,9,9,10,10,11,11,15,15,16,16,17,17,18,18,19,19,20,20,21,21,25,25,26,26,28,28,30,30,31,31,32,32,33,33,35,35,36,36,37,37],"right_children":[2,4,6,8,10,12,14,16,18,20,22,24,-1,-1,-1,26,28,30,32,34,36,38,-1,-1,-1,40,42,-1,44,-1,46,48,50,52,-1,54,56,58,-1,-1,-1,-1,-1,-1,-1,-1,-1,-1,-1,-1,-1,-1,-1,-1,-1,-1,-1,-1,-1],"split_conditions":[2.98E2,2.29E2,3.27E2,1.73E2,2.93E2,3.26E2,3.4E2,1.3E2,2E2,2.57E2,2.97E2,3.14E2,1.10148636E2,6.66146E2,1.1518798E3,1.01E2,1.62E2,7E0,2.06E2,3E1,1E1,2.95E2,1.0976983E2,3.3892468E2,4.9616568E2,3E0,1.1E2,-1.9018259E2,1.68E2,9.484144E1,1.1E1,4E0,2.21E2,2.31E2,-1.1234551E2,2.8E2,2.65E2,5E0,1.5753906E1,-4.2852345E1,-1.6043379E2,5.997387E1,-8.864409E1,-3.8642606E2,-1.7941075E2,-1.2154337E1,5.495033E1,9.443702E0,-1.122129E1,-4.2386024E1,-1.628034E1,-1.1906152E2,-3.0029413E2,-1.5747632E2,-5.5791946E1,-1.43028E2,-2.2884737E2,-2.9363087E1,-6.3656254E0],"split_indices":[5,5,5,5,5,5,5,5,5,5,5,5,0,0,0,5,5,6,5,6,6,5,0,0,0,6,5,0,5,0,6,1,5,5,0,5,5,1,0,0,0,0,0,0,0,0,0,0,0,0,0,0,0,0,0,0,0,0,0],"split_type":[0,0,0,0,0,0,0,0,0,0,0,0,0,0,0,0,0,0,0,0,0,0,0,0,0,0,0,0,0,0,0,0,0,0,0,0,0,0,0,0,0,0,0,0,0,0,0,0,0,0,0,0,0,0,0,0,0,0,0],"sum_hessian":[2.56E2,2.09E2,4.7E1,1.4E2,6.9E1,2.9E1,1.8E1,8.4E1,5.6E1,6.4E1,5E0,2.8E1,1E0,1.3E1,5E0,4.1E1,4.3E1,2.7E1,2.9E1,2.8E1,3.6E1,4E0,1E0,1.6E1,1.2E1,1.2E1,2.9E1,3.2E1,1.1E1,6E0,2.1E1,6E0,2.3E1,2.6E1,2E0,9E0,2.7E1,2E0,2E0,2E0,1E1,9E0,2E1,6E0,5E0,4E0,1.7E1,3E0,3E0,1.5E1,8E0,2E0,2.4E1,6E0,3E0,8E0,1.9E1,1E0,1E0],"tree_param":{"num_deleted":"0","num_feature":"7","num_nodes":"59","size_leaf_vector":"1"}},{"base_weights":[1.2485127E1,-3.2091925E2,1.434302E3,-2.1252403E2,-5.377715E2,1.1455311E3,7.7713416E2,-3.7432214E2,3.2482353E1,-5.8420325E2,-1.1070386E2,2.4008246E2,4.0702286E2,-1.8849121E2,-5.600897E2,1.3760037E2,-6.671055E1,-6.739838E2,-4.78972E2,-5.8535393E1,2.2489746E1,-2.7316257E2,-6.582422E0,-4.559533E2,-7.8243475E2,1.9782487E2,6.3245537E1,-1.2286545E2,-4.0705788E1,-2.43913E2,-1.585149E2,-2.7454437E2,-5.155882E2,-5.41084E0,1.2603126E1,-4.3780205E1,-2.0110548E2,1.0036067E2,-4.8311295E1,-3.0244337E1,-1.3932924E2,-2.595651E2,-7.370469E1,4.1217564E1,1.5658301E2,-1.7545704E1,2.6522364E1,3.0972657E0,-4.871836E1,2.5442188E1,-1.7249239E1,-1.2160523E2,1.0494337E1,-1.0042852E2,-1.8776306E2],"categories":[],"categories_nodes":[],"categories_segments":[],"categories_sizes":[],"default_left":[0,0,0,0,0,0,0,0,0,0,0,0,0,0,0,0,0,0,0,0,0,0,0,0,0,0,0,0,0,0,0,0,0,0,0,0,0,0,0,0,0,0,0,0,0,0,0,0,0,0,0,0,0,0,0],"id":5,"left_children":[1,3,5,7,9,11,-1,13,15,17,19,-1,-1,21,23,25,27,29,31,-1,33,35,37,39,41,43,45,47,49,-1,-1,51,53,-1,-1,-1,-1,-1,-1,-1,-1,-1,-1,-1,-1,-1,-1,-1,-1,-1,-1,-1,-1,-1,-1],"loss_changes":[1.2228856E8,4.798412E6,1.339176E7,5.6016205E6,1.303562E6,1.90404E6,0E0,2.828744E6,6.0351625E5,2.62938E5,9.4335516E4,0E0,0E0,6.7591025E5,6.15724E5,1.1287194E5,3.880753E4,1.98064E5,9.798E4,0E0,3.9220747E3,1.4181865E6,8.4418456E5,4.65095E4,3.20635E5,2.2210094E5,4.8053195E4,4.9060375E4,5.1242844E4,0E0,0E0,2.9759512E5,3.090015E5,0E0,0E0,0E0,0E0,0E0,0E0,0E0,0E0,0E0,0E0,0E0,0E0,0E0,0E0,0E0,0E0,0E0,0E0,0E0,0E0,0E0,0E0],"parents":[2147483647,0,0,1,1,2,2,3,3,4,4,5,5,7,7,8,8,9,9,10,10,13,13,14,14,15,15,16,16,17,17,18,18,20,20,21,21,22,22,23,23,24,24,25,25,26,26,27,27,28,28,31,31,32,32],"right_children":[2,4,6,8,10,12,-1,14,16,18,20,-1,-1,22,24,26,28,30,32,-1,34,36,38,40,42,44,46,48,50,-1,-1,52,54,-1,-1,-1,-1,-1,-1,-1,-1,-1,-1,-1,-1,-1,-1,-1,-1,-1,-1,-1,-1,-1,-1],"split_conditions":[2.97E2,2.29E2,3.37E2,1.73E2,2.9E2,3.14E2,7.7713416E2,1.32E2,2E2,2.59E2,2.94E2,2.4008246E2,4.0702286E2,1.18E2,1.62E2,1.5E1,9E0,1.4E1,2.65E2,-5.8535393E1,2.95E2,1.12E2,1.22E2,2E0,1.71E2,1.95E2,1.75E2,2.15E2,1.1E1,-2.43913E2,-1.585149E2,2.63E2,1.2E1,-5.41084E0,1.2603126E1,-4.3780205E1,-2.0110548E2,1.0036067E2,-4.8311295E1,-3.0244337E1,-1.3932924E2,-2.595651E2,-7.370469E1,4.1217564E1,1.5658301E2,-1.7545704E1,2.6522364E1,3.0972657E0,-4.871836E1,2.5442188E1,-1.7249239E1,-1.2160523E2,1.0494337E1,-1.0042852E2,-1.8776306E2],"split_indices":[5,5,5,5,5,5,0,5,5,5,5,0,0,5,5,6,6,6,5,0,5,5,5,6,5,5,5,5,6,0,0,5,6,0,0,0,0,0,0,0,0,0,0,0,0,0,0,0,0,0,0,0,0,0,0],"split_type":[0,0,0,0,0,0,0,0,0,0,0,0,0,0,0,0,0,0,0,0,0,0,0,0,0,0,0,0,0,0,0,0,0,0,0,0,0,0,0,0,0,0,0,0,0,0,0,0,0,0,0,0,0,0,0],"sum_hessian":[2.56E2,2.08E2,4.8E1,1.4E2,6.8E1,4E1,8E0,8.4E1,5.6E1,6.1E1,7E0,1.7E1,2.3E1,4.3E1,4.1E1,2.7E1,2.9E1,3E1,3.1E1,4E0,3E0,2.9E1,1.4E1,3E1,1.1E1,1.4E1,1.3E1,8E0,2.1E1,1.3E1,1.7E1,6E0,2.5E1,1E0,2E0,2.3E1,6E0,4E0,1E1,1E0,2.9E1,9E0,2E0,1.3E1,1E0,2E0,1.1E1,2E0,6E0,2E0,1.9E1,4E0,2E0,1.1E1,1.4E1],"tree_param":{"num_deleted":"0","num_feature":"7","num_nodes":"55","size_leaf_vector":"1"}},{"base_weights":[8.914154E0,-2.2590697E2,1.0629215E3,-1.524995E2,-3.6850623E2,8.7058984E2,6.696268E2,-2.702101E2,2.5709293E1,-4.1214987E2,8.940011E1,2.0079015E2,3.3816992E2,-1.1887895E2,-3.9592828E2,1.1799918E2,-4.019267E1,-4.8024146E2,-3.269229E2,-7.538672E0,6.634942E1,-2.0722865E2,1.0453939E2,-3.1165875E2,-5.4930804E2,8.455121E1,1.3309541E2,1.4264737E1,-6.347762E1,-1.7596603E2,-1.1594945E2,-3.9010742E1,-3.5536172E2,-1.3851759E1,3.3608074E1,-3.1193655E1,-1.7570694E2,-1.6381056E1,6.780402E1,-9.991361E1,5.269893E1,-1.9423683E2,-8.825303E1,5.9854942E1,9.671692E0,8.464909E0,-9.703516E0,-3.316582E1,-1.1277195E1,-3.599971E1,8.395508E0,-7.281089E1,-1.2321758E2,1.2740625E1,2.383008E0],"categories":[],"categories_nodes":[],"categories_segments":[],"categories_sizes":[],"default_left":[0,0,0,0,0,0,0,0,0,0,0,0,0,0,0,0,0,0,0,0,0,0,0,0,0,0,0,0,0,0,0,0,0,0,0,0,0,0,0,0,0,0,0,0,0,0,0,0,0,0,0,0,0,0,0],"id":6,"left_children":[1,3,5,7,9,11,-1,13,15,17,19,-1,-1,21,23,25,27,29,31,33,-1,35,37,39,41,43,-1,45,47,-1,-1,49,51,-1,53,-1,-1,-1,-1,-1,-1,-1,-1,-1,-1,-1,-1,-1,-1,-1,-1,-1,-1,-1,-1],"loss_changes":[6.3848444E7,2.152519E6,8.62556E6,2.964713E6,1.455761E6,1.415244E6,0E0,1.570064E6,3.5142156E5,2.20209E5,9.1078984E4,0E0,0E0,8.1122125E5,4.23364E5,2.2390647E5,4.4018793E4,1.12143E5,2.48149E5,9.500057E3,0E0,1.0723058E6,2.4432186E5,3.92013E5,1.851435E5,1.3189184E5,0E0,8.065765E3,2.5091414E4,0E0,0E0,2.5061664E4,8.119425E4,0E0,3.448755E2,0E0,0E0,0E0,0E0,0E0,0E0,0E0,0E0,0E0,0E0,0E0,0E0,0E0,0E0,0E0,0E0,0E0,0E0,0E0,0E0],"parents":[2147483647,0,0,1,1,2,2,3,3,4,4,5,5,7,7,8,8,9,9,10,10,13,13,14,14,15,15,16,16,17,17,18,18,19,19,21,21,22,22,23,23,24,24,25,25,27,27,28,28,31,31,32,32,34,34],"right_children":[2,4,6,8,10,12,-1,14,16,18,20,-1,-1,22,24,26,28,30,32,34,-1,36,38,40,42,44,-1,46,48,-1,-1,50,52,-1,54,-1,-1,-1,-1,-1,-1,-1,-1,-1,-1,-1,-1,-1,-1,-1,-1,-1,-1,-1,-1],"split_conditions":[2.99E2,2.29E2,3.4E2,1.73E2,2.93E2,3.24E2,6.696268E2,1.28E2,1.96E2,2.62E2,2.97E2,2.0079015E2,3.3816992E2,1.17E2,1.59E2,1.95E2,2.06E2,1.4E1,2.65E2,2.95E2,6.634942E1,1.12E2,6E0,1.58E2,1.68E2,7E0,1.3309541E2,6E0,2E0,-1.7596603E2,-1.1594945E2,2E0,1.2E1,-1.3851759E1,1E0,-3.1193655E1,-1.7570694E2,-1.6381056E1,6.780402E1,-9.991361E1,5.269893E1,-1.9423683E2,-8.825303E1,5.9854942E1,9.671692E0,8.464909E0,-9.703516E0,-3.316582E1,-1.1277195E1,-3.599971E1,8.395508E0,-7.281089E1,-1.2321758E2,1.2740625E1,2.383008E0],"split_indices":[5,5,5,5,5,5,0,5,5,5,5,0,0,5,5,5,5,6,5,5,0,5,6,5,5,6,0,1,1,0,0,1,6,0,1,0,0,0,0,0,0,0,0,0,0,0,0,0,0,0,0,0,0,0,0],"split_type":[0,0,0,0,0,0,0,0,0,0,0,0,0,0,0,0,0,0,0,0,0,0,0,0,0,0,0,0,0,0,0,0,0,0,0,0,0,0,0,0,0,0,0,0,0,0,0,0,0,0,0,0,0,0,0],"sum_hessian":[2.56E2,2.1E2,4.6E1,1.4E2,7E1,4.1E1,5E0,8.4E1,5.6E1,6.4E1,6E0,2.5E1,1.6E1,3.9E1,4.5E1,2.3E1,3.3E1,3.3E1,3.1E1,4E0,2E0,2.8E1,1.1E1,3.1E1,1.4E1,2.2E1,1E0,1E1,2.3E1,1.3E1,2E1,3E0,2.8E1,2E0,2E0,2.3E1,5E0,5E0,6E0,3E1,1E0,9E0,5E0,6E0,1.6E1,8E0,2E0,7E0,1.6E1,1E0,2E0,1.1E1,1.7E1,1E0,1E0],"tree_param":{"num_deleted":"0","num_feature":"7","num_nodes":"55","size_leaf_vector":"1"}},{"base_weights":[7.922498E0,-1.6181346E2,7.697601E2,-1.0959863E2,-2.6542334E2,6.2224554E2,5.0222052E2,-1.9485507E2,1.723579E1,-3.0854712E2,2.4174023E1,4.471401E2,2.3281758E2,-1.0637963E2,-3.1820914E2,9.104175E1,-3.3866463E1,-3.4965436E2,-2.5113039E2,-5.16077E1,1.5074854E2,4.9855786E2,-9.489493E1,-2.8263297E2,-3.8644737E1,-8.51442E1,-3.5421518E2,6.2208473E1,1.1313106E2,-4.8854494E0,-6.7976074E1,-1.25703636E2,-2.7649536E2,-8.433482E1,-2.9097556E2,-7.1589455E1,-1.1022135E0,1.082959E1,5.3079693E1,5.597532E2,7.5683205E1,-1.92875E1,-9.409966E1,9.909777E1,-3.5444824E1,-4.327969E1,-5.8551273E0,-1.1647874E2,-1.0752686E1,4.3220158E1,-2.1164902E-1,-4.970539E0,3.256377E1,-3.4677246E1,-1.0747426E1,-8.653374E1,-3.49834E1,-1.0262695E1,-3.401309E1,-5.278799E1,-1.1452296E2,1.3013673E0,-2.7496729E1,-2.5215821E0,2.0255861E0,1.7274603E2,4.78125E1],"categories":[],"categories_nodes":[],"categories_segments":[],"categories_sizes":[],"default_left":[0,0,0,0,0,0,0,0,0,0,0,0,0,0,0,0,0,0,0,0,0,0,0,0,0,0,0,0,0,0,0,0,0,0,0,0,0,0,0,0,0,0,0,0,0,0,0,0,0,0,0,0,0,0,0,0,0,0,0,0,0,0,0,0,0,0,0],"id":7,"left_children":[1,3,5,7,9,11,-1,13,15,17,19,21,-1,23,25,27,29,31,33,35,37,39,-1,41,43,45,47,49,-1,51,53,-1,55,57,59,61,63,-1,-1,65,-1,-1,-1,-1,-1,-1,-1,-1,-1,-1,-1,-1,-1,-1,-1,-1,-1,-1,-1,-1,-1,-1,-1,-1,-1,-1,-1],"loss_changes":[3.3357546E7,1.112414E6,5.228054E6,1.5388689E6,8.816565E5,7.842E5,0E0,8.938225E5,2.2183898E5,5.61655E4,1.0370013E5,1.0213165E6,0E0,5.979412E5,2.635515E5,1.744953E5,3.4266492E4,5.1592E4,1.6819438E5,6.98541E3,5.6208438E3,1.752825E5,0E0,7.4693625E4,1.1537538E6,2.0464168E4,3.1127575E5,1.18552945E5,0E0,2.8302836E4,2.0353023E4,0E0,2.666875E3,6.3118203E3,1.7294138E5,8.015498E3,2.2883035E2,0E0,0E0,1.1154E4,0E0,0E0,0E0,0E0,0E0,0E0,0E0,0E0,0E0,0E0,0E0,0E0,0E0,0E0,0E0,0E0,0E0,0E0,0E0,0E0,0E0,0E0,0E0,0E0,0E0,0E0,0E0],"parents":[2147483647,0,0,1,1,2,2,3,3,4,4,5,5,7,7,8,8,9,9,10,10,11,11,13,13,14,14,15,15,16,16,17,17,18,18,19,19,20,20,21,21,23,23,24,24,25,25,26,26,27,27,29,29,30,30,32,32,33,33,34,34,35,35,36,36,39,39],"right_children":[2,4,6,8,10,12,-1,14,16,18,20,22,-1,24,26,28,30,32,34,36,38,40,-1,42,44,46,48,50,-1,52,54,-1,56,58,60,62,64,-1,-1,66,-1,-1,-1,-1,-1,-1,-1,-1,-1,-1,-1,-1,-1,-1,-1,-1,-1,-1,-1,-1,-1,-1,-1,-1,-1,-1,-1],"split_conditions":[2.99E2,2.3E2,3.4E2,1.73E2,2.9E2,3.2E2,5.0222052E2,1.39E2,1.96E2,2.62E2,2.96E2,3.19E2,2.3281758E2,1.02E2,6E0,1.95E2,2.15E2,1.5E1,2.68E2,5E0,1E0,2.7E1,-9.489493E1,3E0,1.08E2,1.54E2,2.9E1,3E0,1.1313106E2,2.14E2,2.2E2,-1.25703636E2,3E1,4E0,1.2E1,2E0,6E0,1.082959E1,5.3079693E1,3.18E2,7.5683205E1,-1.92875E1,-9.409966E1,9.909777E1,-3.5444824E1,-4.327969E1,-5.8551273E0,-1.1647874E2,-1.0752686E1,4.3220158E1,-2.1164902E-1,-4.970539E0,3.256377E1,-3.4677246E1,-1.0747426E1,-8.653374E1,-3.49834E1,-1.0262695E1,-3.401309E1,-5.278799E1,-1.1452296E2,1.3013673E0,-2.7496729E1,-2.5215821E0,2.0255861E0,1.7274603E2,4.78125E1],"split_indices":[5,5,5,5,5,5,0,5,5,5,5,5,0,5,6,5,5,6,5,1,1,6,0,6,5,5,6,1,0,5,5,0,6,1,6,1,1,0,0,5,0,0,0,0,0,0,0,0,0,0,0,0,0,0,0,0,0,0,0,0,0,0,0,0,0,0,0],"split_type":[0,0,0,0,0,0,0,0,0,0,0,0,0,0,0,0,0,0,0,0,0,0,0,0,0,0,0,0,0,0,0,0,0,0,0,0,0,0,0,0,0,0,0,0,0,0,0,0,0,0,0,0,0,0,0,0,0,0,0,0,0,0,0,0,0,0,0],"sum_hessian":[2.56E2,2.1E2,4.6E1,1.41E2,6.9E1,4.1E1,5E0,8.4E1,5.7E1,6E1,9E0,2.1E1,2E1,5E1,3.4E1,2.3E1,3.4E1,3.2E1,2.8E1,6E0,3E0,2E1,1E0,1.3E1,3.7E1,5E0,2.9E1,2.2E1,1E0,1.9E1,1.5E1,1.4E1,1.8E1,6E0,2.2E1,4E0,2E0,1E0,2E0,1.5E1,5E0,2E0,1.1E1,6E0,3.1E1,2E0,3E0,2.6E1,3E0,9E0,1.3E1,1.8E1,1E0,5E0,1E1,1.6E1,2E0,3E0,3E0,1.1E1,1.1E1,1E0,3E0,1E0,1E0,1.4E1,1E0],"tree_param":{"num_deleted":"0","num_feature":"7","num_nodes":"67","size_leaf_vector":"1"}},{"base_weights":[7.207282E0,-1.1568364E2,5.5875574E2,-7.605932E1,-1.911242E2,4.459096E2,3.7666583E2,-1.4098279E2,2.0951754E1,-2.2431851E2,1.33458805E1,3.3465533E2,1.7694997E2,-1.05435074E2,-3.673054E2,6.832844E1,-1.55745735E1,-2.530872E2,-1.894389E2,-4.240039E1,1.2150195E2,3.7249405E2,3.3418945E1,-2.0992448E2,-6.28478E1,-1.4041617E2,-1.5279648E2,4.4463947E1,9.616143E1,-5.9816162E1,-1.3627554E0,-1.9556972E2,-1.11586655E2,-1.4601306E2,-2.3484264E2,-5.606543E1,-9.3684894E-1,9.205078E0,4.2464066E1,3.2215002E2,2.2200938E2,-3.8387695E1,3.8959373E1,-1.5894834E1,-1.0433465E2,1.5879688E0,-4.2630936E1,-5.2176273E1,-1.0244824E1,3.893371E1,2.6446943E0,-2.3569922E0,-3.294346E1,1.9631445E1,-2.8968263E0,-7.234463E1,-7.8712897E0,-5.379572E1,-1.3189063E1,-8.034447E1,-4.3873146E1,-5.2257814E0,-2.1310108E1,-2.1433594E0,1.7217774E0,1.0892914E2,-8.066074E1],"categories":[],"categories_nodes":[],"categories_segments":[],"categories_sizes":[],"default_left":[0,0,0,0,0,0,0,0,0,0,0,0,0,0,0,0,0,0,0,0,0,0,0,0,0,0,0,0,0,0,0,0,0,0,0,0,0,0,0,0,0,0,0,0,0,0,0,0,0,0,0,0,0,0,0,0,0,0,0,0,0,0,0,0,0,0,0],"id":8,"left_children":[1,3,5,7,9,11,-1,13,15,17,19,21,-1,23,25,27,29,31,33,35,37,39,41,43,45,-1,47,49,-1,51,53,55,-1,57,59,61,63,-1,-1,65,-1,-1,-1,-1,-1,-1,-1,-1,-1,-1,-1,-1,-1,-1,-1,-1,-1,-1,-1,-1,-1,-1,-1,-1,-1,-1,-1],"loss_changes":[1.7484174E7,6.162015E5,3.135788E6,8.847152E5,4.9167525E5,4.751175E5,0E0,6.370746E5,9.970248E4,1.42685E4,7.147401E4,2.8390975E5,0E0,3.1610075E5,1.6620888E5,1.3621897E5,2.0667348E4,1.39204E5,2.8804125E4,4.480282E3,2.9386172E3,1.87175E5,7.887413E4,4.3592138E5,2.923813E5,0E0,6.592453E3,7.1848E4,0E0,1.9919129E4,1.5035931E4,1.7118675E5,0E0,5.6694875E4,1.7319375E3,2.2334395E3,1.6533376E2,0E0,0E0,6.300365E5,0E0,0E0,0E0,0E0,0E0,0E0,0E0,0E0,0E0,0E0,0E0,0E0,0E0,0E0,0E0,0E0,0E0,0E0,0E0,0E0,0E0,0E0,0E0,0E0,0E0,0E0,0E0],"parents":[2147483647,0,0,1,1,2,2,3,3,4,4,5,5,7,7,8,8,9,9,10,10,11,11,13,13,14,14,15,15,16,16,17,17,18,18,19,19,20,20,21,21,22,22,23,23,24,24,26,26,27,27,29,29,30,30,31,31,33,33,34,34,35,35,36,36,39,39],"right_children":[2,4,6,8,10,12,-1,14,16,18,20,22,-1,24,26,28,30,32,34,36,38,40,42,44,46,-1,48,50,-1,52,54,56,-1,58,60,62,64,-1,-1,66,-1,-1,-1,-1,-1,-1,-1,-1,-1,-1,-1,-1,-1,-1,-1,-1,-1,-1,-1,-1,-1,-1,-1,-1,-1,-1,-1],"split_conditions":[2.99E2,2.28E2,3.4E2,1.72E2,2.89E2,3.24E2,3.7666583E2,1.62E2,1.96E2,1.6E1,2.96E2,3.21E2,1.7694997E2,2E0,1.68E2,1.95E2,8E0,1.2E1,2.5E1,5E0,1E0,3.2E2,5E0,1E0,1.28E2,-1.4041617E2,6E0,7E0,9.616143E1,2.17E2,1E1,2.8E2,-1.11586655E2,2.63E2,2.9E1,2E0,6E0,9.205078E0,4.2464066E1,3.19E2,2.2200938E2,-3.8387695E1,3.8959373E1,-1.5894834E1,-1.0433465E2,1.5879688E0,-4.2630936E1,-5.2176273E1,-1.0244824E1,3.893371E1,2.6446943E0,-2.3569922E0,-3.294346E1,1.9631445E1,-2.8968263E0,-7.234463E1,-7.8712897E0,-5.379572E1,-1.3189063E1,-8.034447E1,-4.3873146E1,-5.2257814E0,-2.1310108E1,-2.1433594E0,1.7217774E0,1.0892914E2,-8.066074E1],"split_indices":[5,5,5,5,5,5,0,5,5,6,5,5,0,1,5,5,6,6,6,1,1,5,1,1,5,0,1,6,0,5,6,5,0,5,6,1,1,0,0,5,0,0,0,0,0,0,0,0,0,0,0,0,0,0,0,0,0,0,0,0,0,0,0,0,0,0,0],"split_type":[0,0,0,0,0,0,0,0,0,0,0,0,0,0,0,0,0,0,0,0,0,0,0,0,0,0,0,0,0,0,0,0,0,0,0,0,0,0,0,0,0,0,0,0,0,0,0,0,0,0,0,0,0,0,0,0,0,0,0,0,0,0,0,0,0,0,0],"sum_hessian":[2.56E2,2.1E2,4.6E1,1.39E2,7.1E1,4.1E1,5E0,8.3E1,5.6E1,6.1E1,1E1,2.5E1,1.6E1,7.3E1,1E1,2.4E1,3.2E1,3E1,3.1E1,7E0,3E0,2.2E1,3E0,2E1,5.3E1,6E0,4E0,2.3E1,1E0,7E0,2.5E1,2.2E1,8E0,1.8E1,1.3E1,5E0,2E0,1E0,2E0,2.1E1,1E0,1E0,2E0,1E1,1E1,2.9E1,2.4E1,3E0,1E0,6E0,1.7E1,4E0,3E0,2E0,2.3E1,1.7E1,5E0,1.3E1,5E0,8E0,5E0,2E0,3E0,1E0,1E0,2E1,1E0],"tree_param":{"num_deleted":"0","num_feature":"7","num_nodes":"67","size_leaf_vector":"1"}},{"base_weights":[5.8279424E0,-7.981439E1,4.3390408E2,-8.69309E1,1.1519165E2,3.423126E2,2.8249982E2,-5.5978558E1,-1.5267717E2,1.5546387E2,-3.75E0,2.011316E2,3.9973724E2,-1.01132744E2,1.3923075E1,-1.6631009E2,-3.3049805E1,7.8243165E0,5.283727E1,-1.4313868E1,1.2626368E1,2.2988423E2,2.8661459E1,2.5379231E2,4.8984402E2,-5.5146965E1,-1.824249E2,5.2043762E1,-3.3530197E1,-1.7999614E2,-1.1416458E2,-4.366797E1,-7.96875E-1,2.5251302E2,8.536979E1,-1.9913673E1,3.281133E1,3.7226605E2,-7.622168E1,1.8773572E2,3.2968445E2,-6.537266E1,-3.4465482E0,-1.14491165E2,-4.423525E1,1.871588E1,-2.061875E1,-2.0368874E1,-5.1886616E0,-7.461751E1,-4.2280174E1,-1.6299664E1,-6.688887E1,-4.180469E0,-1.6515236E1,-1.8219727E0,1.4633789E0,8.27729E1,9.800977E0,3.020508E0,3.53959E1,1.2192408E2,1.4862891E1,-9.878633E1,1.0244649E2,7.0605474E0,1.4365099E2],"categories":[],"categories_nodes":[],"categories_segments":[],"categories_sizes":[],"default_left":[0,0,0,0,0,0,0,0,0,0,0,0,0,0,0,0,0,0,0,0,0,0,0,0,0,0,0,0,0,0,0,0,0,0,0,0,0,0,0,0,0,0,0,0,0,0,0,0,0,0,0,0,0,0,0,0,0,0,0,0,0,0,0,0,0,0,0],"id":9,"left_children":[1,3,5,7,9,11,-1,13,15,17,19,21,23,25,27,29,31,-1,-1,-1,-1,33,35,37,39,41,43,45,47,49,51,53,55,57,59,-1,-1,61,63,-1,65,-1,-1,-1,-1,-1,-1,-1,-1,-1,-1,-1,-1,-1,-1,-1,-1,-1,-1,-1,-1,-1,-1,-1,-1,-1,-1],"loss_changes":[9.456621E6,3.083825E5,1.6774425E6,4.1473362E5,3.8903336E4,2.276765E5,0E0,4.5276638E5,1.0214075E5,1.14450625E4,8.053634E3,5.787775E4,2.1759775E5,3.1517044E5,1.04855266E5,2.1557125E4,2.7049375E3,0E0,0E0,0E0,0E0,1.44150625E4,3.0271953E4,4.9755075E5,1.202735E5,4.025348E5,1.5971262E5,4.4258766E4,1.3331645E4,8.5757875E4,8.553084E4,1.2635498E3,1.19451904E2,3.7278375E4,6.180285E3,0E0,0E0,7.904675E4,5.3528075E5,0E0,3.9969594E5,0E0,0E0,0E0,0E0,0E0,0E0,0E0,0E0,0E0,0E0,0E0,0E0,0E0,0E0,0E0,0E0,0E0,0E0,0E0,0E0,0E0,0E0,0E0,0E0,0E0,0E0],"parents":[2147483647,0,0,1,1,2,2,3,3,4,4,5,5,7,7,8,8,9,9,10,10,11,11,12,12,13,13,14,14,15,15,16,16,21,21,22,22,23,23,24,24,25,25,26,26,27,27,28,28,29,29,30,30,31,31,32,32,33,33,34,34,37,37,38,38,40,40],"right_children":[2,4,6,8,10,12,-1,14,16,18,20,22,24,26,28,30,32,-1,-1,-1,-1,34,36,38,40,42,44,46,48,50,52,54,56,58,60,-1,-1,62,64,-1,66,-1,-1,-1,-1,-1,-1,-1,-1,-1,-1,-1,-1,-1,-1,-1,-1,-1,-1,-1,-1,-1,-1,-1,-1,-1,-1],"split_conditions":[3.03E2,2.96E2,3.4E2,2.31E2,5E0,3.15E2,2.8249982E2,1.75E2,2.89E2,1E0,6E0,5E0,3E0,1.45E2,2.06E2,2.75E2,5E0,7.8243165E0,5.283727E1,-1.4313868E1,1.2626368E1,3.13E2,6E0,2E0,1.7E1,1E2,1.48E2,2.9E1,2E0,1.4E1,2.85E2,2E0,6E0,4E0,4E0,-1.9913673E1,3.281133E1,2.8E1,3.27E2,1.8773572E2,3.24E2,-6.537266E1,-3.4465482E0,-1.14491165E2,-4.423525E1,1.871588E1,-2.061875E1,-2.0368874E1,-5.1886616E0,-7.461751E1,-4.2280174E1,-1.6299664E1,-6.688887E1,-4.180469E0,-1.6515236E1,-1.8219727E0,1.4633789E0,8.27729E1,9.800977E0,3.020508E0,3.53959E1,1.2192408E2,1.4862891E1,-9.878633E1,1.0244649E2,7.0605474E0,1.4365099E2],"split_indices":[5,5,5,5,1,5,0,5,5,1,1,1,1,5,5,5,1,0,0,0,0,5,1,1,6,5,5,6,1,6,5,1,1,1,1,0,0,6,5,0,5,0,0,0,0,0,0,0,0,0,0,0,0,0,0,0,0,0,0,0,0,0,0,0,0,0,0],"split_type":[0,0,0,0,0,0,0,0,0,0,0,0,0,0,0,0,0,0,0,0,0,0,0,0,0,0,0,0,0,0,0,0,0,0,0,0,0,0,0,0,0,0,0,0,0,0,0,0,0,0,0,0,0,0,0,0,0,0,0,0,0,0,0,0,0,0,0],"sum_hessian":[2.56E2,2.14E2,4.2E1,2.07E2,7E0,3.7E1,5E0,1.42E2,6.5E1,5E0,2E0,1.2E1,2.5E1,8.6E1,5.6E1,5.8E1,7E0,1E0,4E0,1E0,1E0,1E1,2E0,1.1E1,1.4E1,5.6E1,3E1,3.1E1,2.5E1,4.4E1,1.4E1,5E0,2E0,8E0,2E0,1E0,1E0,8E0,3E0,6E0,8E0,1.1E1,4.5E1,3E0,2.7E1,2.9E1,2E0,7E0,1.8E1,1.4E1,3E1,1E1,4E0,2E0,3E0,1E0,1E0,7E0,1E0,1E0,1E0,7E0,1E0,2E0,1E0,3E0,5E0],"tree_param":{"num_deleted":"0","num_feature":"7","num_nodes":"67","size_leaf_vector":"1"}},{"base_weights":[5.9786067E0,-4.9807957E1,3.7333777E2,-6.3140984E1,1.162554E2,2.9158582E2,2.118748E2,-3.977041E1,-1.0964445E2,1.5989365E2,3.1073103E1,2.1203757E2,3.352647E2,-7.58879E1,1.4153097E1,-1.1869894E2,-2.5766602E1,1.0373459E2,8.252187E1,-7.99375E0,2.5748047E1,2.7578342E2,5.48875E1,7.25651E1,3.6545364E2,-5.1159946E1,-2.3534073E2,5.9686035E1,-3.5297618E0,-1.488858E2,-1.0496251E2,-3.4016926E1,-6.770833E-1,6.650684E0,3.3347755E1,1.53988285E1,-1.9395704E1,3.8900392E0,3.0701465E2,-7.652344E1,8.707969E1,2.5675783E0,3.008672E1,1.6771613E2,2.7046582E2,-4.5682235E0,-4.061977E1,-9.293462E1,-2.5216408E1,7.0948663E0,6.2388283E1,-1.9300606E1,4.5009413E0,2.6085646E1,-5.0718056E1,-5.39459E1,-2.7434322E1,-3.3445313E0,-1.2799219E1,-1.5486329E0,1.2439454E0,1.0873516E2,2.8141407E1,7.262988E1,-7.9029305E1,-3.3689064E1,9.464137E1],"categories":[],"categories_nodes":[],"categories_segments":[],"categories_sizes":[],"default_left":[0,0,0,0,0,0,0,0,0,0,0,0,0,0,0,0,0,0,0,0,0,0,0,0,0,0,0,0,0,0,0,0,0,0,0,0,0,0,0,0,0,0,0,0,0,0,0,0,0,0,0,0,0,0,0,0,0,0,0,0,0,0,0,0,0,0,0],"id":10,"left_children":[1,3,5,7,9,11,-1,13,15,17,19,21,23,25,27,29,31,33,-1,35,-1,37,39,41,43,45,47,49,51,53,55,57,59,-1,-1,-1,-1,-1,61,63,-1,-1,-1,-1,65,-1,-1,-1,-1,-1,-1,-1,-1,-1,-1,-1,-1,-1,-1,-1,-1,-1,-1,-1,-1,-1,-1],"loss_changes":[5.2854775E6,5.0330488E5,7.19418E5,2.2169638E5,5.8224094E4,2.967425E4,0E0,2.7373553E5,4.9345E4,4.2617375E4,1.5659469E4,1.1509256E5,1.083015E5,3.191672E5,4.6104375E4,1.00815E4,1.6329414E3,2.986039E3,0E0,2.0124406E4,0E0,6.989175E4,1.7686842E5,4.46521E3,1.2463975E5,2.2193112E5,9.7842625E4,8.05747E4,4.829519E4,9.558416E4,3.0093031E4,7.1084326E2,8.630608E1,0E0,0E0,0E0,0E0,0E0,6.055625E4,3.0198878E5,0E0,0E0,0E0,0E0,2.4214319E5,0E0,0E0,0E0,0E0,0E0,0E0,0E0,0E0,0E0,0E0,0E0,0E0,0E0,0E0,0E0,0E0,0E0,0E0,0E0,0E0,0E0,0E0],"parents":[2147483647,0,0,1,1,2,2,3,3,4,4,5,5,7,7,8,8,9,9,10,10,11,11,12,12,13,13,14,14,15,15,16,16,17,17,19,19,21,21,22,22,23,23,24,24,25,25,26,26,27,27,28,28,29,29,30,30,31,31,32,32,38,38,39,39,44,44],"right_children":[2,4,6,8,10,12,-1,14,16,18,20,22,24,26,28,30,32,34,-1,36,-1,38,40,42,44,46,48,50,52,54,56,58,60,-1,-1,-1,-1,-1,62,64,-1,-1,-1,-1,66,-1,-1,-1,-1,-1,-1,-1,-1,-1,-1,-1,-1,-1,-1,-1,-1,-1,-1,-1,-1,-1,-1],"split_conditions":[3.12E2,2.96E2,3.4E2,2.28E2,4E0,3E0,2.118748E2,1.72E2,2.89E2,3E0,6E0,2E0,3.15E2,1.62E2,1.87E2,2E0,5E0,2.97E2,8.252187E1,5E0,2.5748047E1,5E0,3.27E2,4E0,3.21E2,2.2E1,1.68E2,1.85E2,8E0,3E0,5E0,2E0,6E0,6.650684E0,3.3347755E1,1.53988285E1,-1.9395704E1,3.8900392E0,2.2E1,3.13E2,8.707969E1,2.5675783E0,3.008672E1,1.6771613E2,3.22E2,-4.5682235E0,-4.061977E1,-9.293462E1,-2.5216408E1,7.0948663E0,6.2388283E1,-1.9300606E1,4.5009413E0,2.6085646E1,-5.0718056E1,-5.39459E1,-2.7434322E1,-3.3445313E0,-1.2799219E1,-1.5486329E0,1.2439454E0,1.0873516E2,2.8141407E1,7.262988E1,-7.9029305E1,-3.3689064E1,9.464137E1],"split_indices":[5,5,5,5,1,1,0,5,5,1,1,1,5,5,5,1,1,5,0,1,0,6,5,1,5,6,5,5,6,6,6,1,1,0,0,0,0,0,6,5,0,0,0,0,5,0,0,0,0,0,0,0,0,0,0,0,0,0,0,0,0,0,0,0,0,0,0],"split_type":[0,0,0,0,0,0,0,0,0,0,0,0,0,0,0,0,0,0,0,0,0,0,0,0,0,0,0,0,0,0,0,0,0,0,0,0,0,0,0,0,0,0,0,0,0,0,0,0,0,0,0,0,0,0,0,0,0,0,0,0,0,0,0,0,0,0,0],"sum_hessian":[2.56E2,2.23E2,3.3E1,2.07E2,1.6E1,2.8E1,5E0,1.39E2,6.8E1,1E1,6E0,1.2E1,1.6E1,8.3E1,5.6E1,6.1E1,7E0,8E0,2E0,4E0,2E0,8E0,4E0,2E0,1.4E1,7.3E1,1E1,1.5E1,4.1E1,1.6E1,4.5E1,5E0,2E0,1E0,7E0,2E0,2E0,1E0,7E0,3E0,1E0,1E0,1E0,3E0,1.1E1,5.2E1,2.1E1,6E0,4E0,1.3E1,2E0,9E0,3.2E1,1E0,1.5E1,5E0,4E1,2E0,3E0,1E0,1E0,5E0,2E0,1E0,2E0,1E0,1E1],"tree_param":{"num_deleted":"0","num_feature":"7","num_nodes":"67","size_leaf_vector":"1"}},{"base_weights":[6.5500746E0,-3.525329E1,2.8176782E2,-4.530984E1,8.986535E1,2.1548772E2,1.5199068E2,-5.4398354E1,2.6635336E1,1.2306357E2,2.4858816E1,2.2265234E2,3.3064454E0,-3.9693703E1,-1.10237564E2,1.2127717E2,-4.9628628E1,7.705859E1,6.601719E1,-6.3953123E0,2.0598827E1,1.6005717E2,2.500579E2,3.315855E1,-5.622403E1,-1.3659071E2,-5.6250458E1,1.7811935E2,-8.967513E1,-2.9283804E1,-4.71167E1,5.6531253E0,2.4593996E1,1.231914E1,-1.5516797E1,2.1254799E2,5.4558594E1,2.1826172E0,2.647771E2,-4.2075638E1,4.608468E1,-2.9446007E1,-1.2013642E1,8.94313E-1,-3.271989E1,6.2341328E1,1.48443365E1,-7.4009767E0,-3.2952835E1,-2.2984938E1,1.161211E1,7.15877E1,8.412305E0,-1.6549513E1,7.4017975E1,1.25648445E2,5.9102795E1],"categories":[],"categories_nodes":[],"categories_segments":[],"categories_sizes":[],"default_left":[0,0,0,0,0,0,0,0,0,0,0,0,0,0,0,0,0,0,0,0,0,0,0,0,0,0,0,0,0,0,0,0,0,0,0,0,0,0,0,0,0,0,0,0,0,0,0,0,0,0,0,0,0,0,0,0,0],"id":11,"left_children":[1,3,5,7,9,11,-1,13,15,17,19,21,-1,23,25,27,29,31,-1,33,-1,35,37,39,41,-1,43,45,47,49,-1,-1,-1,-1,-1,51,53,-1,55,-1,-1,-1,-1,-1,-1,-1,-1,-1,-1,-1,-1,-1,-1,-1,-1,-1,-1],"loss_changes":[2.9667252E6,2.859226E5,3.9757075E5,1.3745478E5,3.36285E4,3.8564E4,0E0,1.4752706E5,1.7924506E5,3.2126812E4,1.0022498E4,6.293625E3,0E0,1.8009652E5,6.822929E5,1.4787378E5,2.5998992E4,1.0336719E3,0E0,1.2879906E4,0E0,4.9318438E4,5.882425E4,6.064239E5,7.815044E4,0E0,1.0668943E5,2.4085312E4,1.2231914E3,4.480202E4,0E0,0E0,0E0,0E0,0E0,2.6989281E4,1.19037516E5,0E0,8.4522125E4,0E0,0E0,0E0,0E0,0E0,0E0,0E0,0E0,0E0,0E0,0E0,0E0,0E0,0E0,0E0,0E0,0E0,0E0],"parents":[2147483647,0,0,1,1,2,2,3,3,4,4,5,5,7,7,8,8,9,9,10,10,11,11,13,13,14,14,15,15,16,16,17,17,19,19,21,21,22,22,23,23,24,24,26,26,27,27,28,28,29,29,35,35,36,36,38,38],"right_children":[2,4,6,8,10,12,-1,14,16,18,20,22,-1,24,26,28,30,32,-1,34,-1,36,38,40,42,-1,44,46,48,50,-1,-1,-1,-1,-1,52,54,-1,56,-1,-1,-1,-1,-1,-1,-1,-1,-1,-1,-1,-1,-1,-1,-1,-1,-1,-1],"split_conditions":[3.12E2,2.96E2,3.39E2,2.8E1,4E0,3.38E2,1.5199068E2,2.2E1,1.8E2,3E0,6E0,3E0,3.3064454E0,1.27E2,1.16E2,3.1E1,2.73E2,2.97E2,6.601719E1,5E0,2.0598827E1,2E0,3.14E2,1.02E2,1.69E2,-1.3659071E2,2.5E1,6E0,3E0,4E0,-4.71167E1,5.6531253E0,2.4593996E1,1.231914E1,-1.5516797E1,3.32E2,3.27E2,2.1826172E0,4E0,-4.2075638E1,4.608468E1,-2.9446007E1,-1.2013642E1,8.94313E-1,-3.271989E1,6.2341328E1,1.48443365E1,-7.4009767E0,-3.2952835E1,-2.2984938E1,1.161211E1,7.15877E1,8.412305E0,-1.6549513E1,7.4017975E1,1.25648445E2,5.9102795E1],"split_indices":[5,5,5,6,1,5,0,6,5,1,1,1,0,5,5,6,5,5,0,1,0,1,5,5,5,0,6,1,1,1,0,0,0,0,0,5,5,0,1,0,0,0,0,0,0,0,0,0,0,0,0,0,0,0,0,0,0],"split_type":[0,0,0,0,0,0,0,0,0,0,0,0,0,0,0,0,0,0,0,0,0,0,0,0,0,0,0,0,0,0,0,0,0,0,0,0,0,0,0,0,0,0,0,0,0,0,0,0,0,0,0,0,0,0,0,0,0],"sum_hessian":[2.56E2,2.23E2,3.3E1,2.07E2,1.6E1,2.7E1,6E0,1.84E2,2.3E1,1E1,6E0,2.6E1,1E0,1.47E2,3.7E1,1E1,1.3E1,8E0,2E0,4E0,2E0,1E1,1.6E1,2.7E1,1.2E2,4E0,3.3E1,8E0,2E0,1.2E1,1E0,1E0,7E0,2E0,2E0,6E0,4E0,1E0,1.5E1,1.1E1,1.6E1,3.2E1,8.8E1,1.6E1,1.7E1,6E0,2E0,1E0,1E0,7E0,5E0,5E0,1E0,3E0,1E0,3E0,1.2E1],"tree_param":{"num_deleted":"0","num_feature":"7","num_nodes":"57","size_leaf_vector":"1"}},{"base_weights":[6.008641E0,-2.993702E1,1.855972E2,-1.1867936E2,-2.4570131E1,1.463821E2,1.2090801E2,-2.0563477E1,-5.574735E1,1.4997102E2,-3.5295124E1,7.948906E1,1.64401E2,1.2670313E1,-2.8009865E1,3.5121093E0,2.2276147E2,-3.364811E2,-2.5495066E1,4.7285942E1,4.0253906E1,6.688276E1,1.3943614E2,-6.6058598E0,8.054297E0,9.01167E1,-5.143594E1,2.4426432E1,2.848021E2,-1.09432625E2,-2.9251467E1,2.0707394E2,-3.4299946E1,-1.6704428E1,6.202409E1,-4.029492E1,1.7190384E2,5.8064456E0,4.536035E1,3.0676466E1,-1.968457E1,9.7156296E1,1.3431153E1,2.5780273E1,7.150289E1,-8.279209E1,-9.432005E0,4.173047E0,-1.169004E1,2.3153908E1,6.3425784E0,1.1654356E2,4.2495354E1],"categories":[],"categories_nodes":[],"categories_segments":[],"categories_sizes":[],"default_left":[0,0,0,0,0,0,0,0,0,0,0,0,0,0,0,0,0,0,0,0,0,0,0,0,0,0,0,0,0,0,0,0,0,0,0,0,0,0,0,0,0,0,0,0,0,0,0,0,0,0,0,0,0],"id":12,"left_children":[1,3,5,7,9,11,-1,13,-1,15,17,19,21,23,-1,25,27,29,31,-1,33,-1,35,-1,-1,37,-1,39,41,-1,-1,43,45,47,49,-1,51,-1,-1,-1,-1,-1,-1,-1,-1,-1,-1,-1,-1,-1,-1,-1,-1],"loss_changes":[1.6646016E6,9.948211E4,3.0764438E5,7.5234875E4,3.8717162E5,3.2734812E4,0E0,1.5700042E4,0E0,1.27147375E5,5.61088E5,2.4309895E4,1.12966875E4,3.050222E3,0E0,9.121475E4,9.148191E4,5.0025625E3,3.9207812E5,0E0,1.0956021E4,0E0,2.2751616E5,0E0,0E0,1.436334E4,0E0,2.7732889E4,4.17435E4,0E0,0E0,6.033625E3,1.17116266E5,2.5866936E3,2.085836E3,0E0,8.256275E4,0E0,0E0,0E0,0E0,0E0,0E0,0E0,0E0,0E0,0E0,0E0,0E0,0E0,0E0,0E0,0E0],"parents":[2147483647,0,0,1,1,2,2,3,3,4,4,5,5,7,7,9,9,10,10,11,11,12,12,13,13,15,15,16,16,17,17,18,18,20,20,22,22,25,25,27,27,28,28,31,31,32,32,33,33,34,34,36,36],"right_children":[2,4,6,8,10,12,-1,14,-1,16,18,20,22,24,-1,26,28,30,32,-1,34,-1,36,-1,-1,38,-1,40,42,-1,-1,44,46,48,50,-1,52,-1,-1,-1,-1,-1,-1,-1,-1,-1,-1,-1,-1,-1,-1,-1,-1],"split_conditions":[3.03E2,1E2,3.4E2,9.4E1,1.11E2,3.12E2,1.2090801E2,3.1E1,-5.574735E1,2E0,1.16E2,3E0,3.18E2,1E0,-2.8009865E1,1.08E2,1.04E2,6E0,1.22E2,4.7285942E1,5E0,6.688276E1,3.2E2,-6.6058598E0,8.054297E0,1.02E2,-5.143594E1,3E0,1.1E2,-1.09432625E2,-2.9251467E1,1.18E2,1.23E2,5E0,3.1E2,-4.029492E1,3.21E2,5.8064456E0,4.536035E1,3.0676466E1,-1.968457E1,9.7156296E1,1.3431153E1,2.5780273E1,7.150289E1,-8.279209E1,-9.432005E0,4.173047E0,-1.169004E1,2.3153908E1,6.3425784E0,1.1654356E2,4.2495354E1],"split_indices":[5,5,5,5,5,5,0,6,0,1,5,6,5,1,0,5,5,1,5,0,6,0,5,0,0,5,0,1,5,0,0,5,5,1,5,0,5,0,0,0,0,0,0,0,0,0,0,0,0,0,0,0,0],"split_type":[0,0,0,0,0,0,0,0,0,0,0,0,0,0,0,0,0,0,0,0,0,0,0,0,0,0,0,0,0,0,0,0,0,0,0,0,0,0,0,0,0,0,0,0,0,0,0,0,0,0,0,0,0],"sum_hessian":[2.56E2,2.14E2,4.2E1,1.1E1,2.03E2,3.7E1,5E0,5E0,6E0,1.1E1,1.92E2,9E0,2.8E1,4E0,1E0,4E0,7E0,5E0,1.87E2,2E0,7E0,6E0,2.2E1,1E0,3E0,3E0,1E0,2E0,5E0,4E0,1E0,6E0,1.81E2,2E0,5E0,2E0,2E1,2E0,1E0,1E0,1E0,4E0,1E0,2E0,4E0,1E0,1.8E2,1E0,1E0,3E0,2E0,1E0,1.9E1],"tree_param":{"num_deleted":"0","num_feature":"7","num_nodes":"53","size_leaf_vector":"1"}},{"base_weights":[5.2999606E0,-2.398531E1,1.3010243E2,-8.532729E0,-5.4547825E1,8.90283E1,2.369979E2,-3.4700127E1,3.0179447E1,-7.79249E1,-3.5066895E1,9.900549E1,2.0978516E1,9.6541016E1,9.381475E1,-1.9282427E1,-2.0154018E2,5.5718674E1,9.917022E0,-3.8105385E1,-1.7102756E2,-1.6506668E1,-7.6998535E1,1.1500446E2,6.2756836E1,-1.0532552E1,1.1810157E1,-3.563672E0,1.20600784E2,-8.320907E1,7.3174872E0,-1.1945879E2,-4.323867E1,3.5409344E1,8.147139E1,2.8058697E1,-1.3723568E1,-6.2822918E1,4.2398113E1,-1.10929695E2,-9.99646E1,-9.632324E0,-3.1348244E1,-9.522383E1,2.825586E0,8.7733986E1,9.906211E1,-9.68584E1,1.2672396E2,7.757813E-1,-5.51543E0,3.3121094E1,5.0364063E1,2.1637208E0,-5.0008938E1,3.303848E1,-6.0783987E0,-1.8677637E1,4.9262695E0,1.8748312E1,-7.971753E0,-7.5660515E-1,1.8695248E1,-5.919592E0,5.0662107E0,6.614209E0,-2.4380041E1,-4.232227E0,3.1081837E1,-1.109795E1,-3.9104652E1,-7.2195005E0,2.4893995E1,-1.9053852E1,-3.8073635E1,3.461732E1,-3.223594E1,-4.3875587E1,-9.492969E0,7.351485E1,1.737288E1,2.6706446E1,-1.1801953E1],"categories":[],"categories_nodes":[],"categories_segments":[],"categories_sizes":[],"default_left":[0,0,0,0,0,0,0,0,0,0,0,0,0,0,0,0,0,0,0,0,0,0,0,0,0,0,0,0,0,0,0,0,0,0,0,0,0,0,0,0,0,0,0,0,0,0,0,0,0,0,0,0,0,0,0,0,0,0,0,0,0,0,0,0,0,0,0,0,0,0,0,0,0,0,0,0,0,0,0,0,0,0,0],"id":13,"left_children":[1,3,5,7,9,11,13,15,17,19,21,23,25,27,-1,29,31,33,35,37,39,41,43,45,47,49,-1,-1,51,53,55,-1,57,59,-1,61,63,65,67,-1,69,71,-1,73,-1,75,-1,77,79,-1,-1,81,-1,-1,-1,-1,-1,-1,-1,-1,-1,-1,-1,-1,-1,-1,-1,-1,-1,-1,-1,-1,-1,-1,-1,-1,-1,-1,-1,-1,-1,-1,-1],"loss_changes":[9.424233E5,9.823894E4,1.9404181E5,1.428668E5,2.9145906E4,2.3044031E4,1.0806644E5,2.1218614E5,2.8944172E4,1.0840933E5,2.9859438E4,1.13408125E4,3.8913167E3,1.7083957E4,0E0,1.3324347E5,2.006989E5,9.99794E4,1.4538101E4,4.843007E4,9.014278E4,1.6534305E4,1.9796617E4,9.427181E4,1.3479581E5,3.565694E2,0E0,0E0,1.511957E4,1.7483045E5,1.610137E5,0E0,6.696005E3,4.195136E4,0E0,2.0062676E4,3.0920645E3,2.996779E4,2.2213162E4,0E0,1.0484695E4,3.9422926E4,0E0,1.9881172E3,0E0,1.2036525E5,0E0,8.256953E3,5.909175E4,0E0,0E0,1.5653876E4,0E0,0E0,0E0,0E0,0E0,0E0,0E0,0E0,0E0,0E0,0E0,0E0,0E0,0E0,0E0,0E0,0E0,0E0,0E0,0E0,0E0,0E0,0E0,0E0,0E0,0E0,0E0,0E0,0E0,0E0,0E0],"parents":[2147483647,0,0,1,1,2,2,3,3,4,4,5,5,6,6,7,7,8,8,9,9,10,10,11,11,12,12,13,13,15,15,16,16,17,17,18,18,19,19,20,20,21,21,22,22,23,23,24,24,25,25,28,28,29,29,30,30,32,32,33,33,35,35,36,36,37,37,38,38,40,40,41,41,43,43,45,45,47,47,48,48,51,51],"right_children":[2,4,6,8,10,12,14,16,18,20,22,24,26,28,-1,30,32,34,36,38,40,42,44,46,48,50,-1,-1,52,54,56,-1,58,60,-1,62,64,66,68,-1,70,72,-1,74,-1,76,-1,78,80,-1,-1,82,-1,-1,-1,-1,-1,-1,-1,-1,-1,-1,-1,-1,-1,-1,-1,-1,-1,-1,-1,-1,-1,-1,-1,-1,-1,-1,-1,-1,-1,-1,-1],"split_conditions":[2.97E2,2.28E2,3.33E2,1.72E2,1.6E1,2.8E1,6E0,1.66E2,1.96E2,1.2E1,5E0,3.21E2,2.9E1,1E0,9.381475E1,2E0,1.68E2,1.95E2,4E0,2.8E2,2E0,3.1E1,4E0,3.2E2,3.24E2,2E0,1.1810157E1,-3.563672E0,3.37E2,1E0,3E0,-1.1945879E2,6E0,1.88E2,8.147139E1,2E0,2.9E1,1E0,3E0,-1.10929695E2,4E0,2.9E1,-3.1348244E1,2.5E1,2.825586E0,3.18E2,9.906211E1,5E0,3.26E2,7.757813E-1,-5.51543E0,5E0,5.0364063E1,2.1637208E0,-5.0008938E1,3.303848E1,-6.0783987E0,-1.8677637E1,4.9262695E0,1.8748312E1,-7.971753E0,-7.5660515E-1,1.8695248E1,-5.919592E0,5.0662107E0,6.614209E0,-2.4380041E1,-4.232227E0,3.1081837E1,-1.109795E1,-3.9104652E1,-7.2195005E0,2.4893995E1,-1.9053852E1,-3.8073635E1,3.461732E1,-3.223594E1,-4.3875587E1,-9.492969E0,7.351485E1,1.737288E1,2.6706446E1,-1.1801953E1],"split_indices":[5,5,5,5,6,6,6,5,5,6,1,5,6,1,0,1,5,5,1,5,1,6,2,5,5,1,0,0,5,1,1,0,1,5,0,1,6,1,1,0,2,6,0,6,0,5,0,1,5,0,0,1,0,0,0,0,0,0,0,0,0,0,0,0,0,0,0,0,0,0,0,0,0,0,0,0,0,0,0,0,0,0,0],"split_type":[0,0,0,0,0,0,0,0,0,0,0,0,0,0,0,0,0,0,0,0,0,0,0,0,0,0,0,0,0,0,0,0,0,0,0,0,0,0,0,0,0,0,0,0,0,0,0,0,0,0,0,0,0,0,0,0,0,0,0,0,0,0,0,0,0,0,0,0,0,0,0,0,0,0,0,0,0,0,0,0,0,0,0],"sum_hessian":[2.56E2,2.08E2,4.8E1,1.39E2,6.9E1,3.6E1,1.2E1,8.3E1,5.6E1,3E1,3.9E1,3.1E1,5E0,5E0,7E0,7.7E1,6E0,2.4E1,3.2E1,2.2E1,8E0,2.8E1,1.1E1,2E1,1.1E1,2E0,3E0,1E0,4E0,2.2E1,5.5E1,2E0,4E0,2.3E1,1E0,1.8E1,1.4E1,1.7E1,5E0,1E0,7E0,2.7E1,1E0,9E0,2E0,1.9E1,1E0,3E0,8E0,1E0,1E0,2E0,2E0,1.1E1,1.1E1,1.1E1,4.4E1,3E0,1E0,1.6E1,7E0,1E1,8E0,1.2E1,2E0,3E0,1.4E1,3E0,2E0,3E0,4E0,2.4E1,3E0,6E0,3E0,1.7E1,2E0,1E0,2E0,2E0,6E0,1E0,1E0],"tree_param":{"num_deleted":"0","num_feature":"7","num_nodes":"83","size_leaf_vector":"1"}},{"base_weights":[3.8530064E0,-1.4045096E1,1.2165659E2,-8.464844E1,-1.0001504E1,7.082075E1,1.6832652E2,-1.5130208E1,-3.9642857E1,1.20089355E2,-1.768016E1,1.01240105E2,-6.095703E1,2.9054688E1,2.0894441E2,1.2372656E1,-2.289668E1,2.1542969E1,1.6666968E2,-7.4291016E1,-1.0586661E1,1.4711371E2,2.7796875E1,-5.9442776E1,1.5245704E1,5.4492188E0,1.8521484E1,2.8152344E1,7.1776924E1,-5.9396486E0,7.6095705E0,8.7293945E1,-3.6219143E1,1.1776042E1,2.1633821E2,1.5729381E2,-1.6683922E1,2.9092447E1,8.621016E1,1.2978809E2,-8.1143555E1,1.39973955E1,-3.029297E0,2.2700392E1,-1.00318365E1,9.4296875E0,3.823184E1,2.111924E1,-1.582002E1,7.2950516E1,1.2328126E1,1.792793E1,5.5306644E1,-6.287168E1,-4.3697124E0,3.24334E1,-2.5789062E1,1.4835938E0,5.0926174E1,-3.729434E1,-7.5945315E0,5.6396484E0,6.591797E-1],"categories":[],"categories_nodes":[],"categories_segments":[],"categories_sizes":[],"default_left":[0,0,0,0,0,0,0,0,0,0,0,0,0,0,0,0,0,0,0,0,0,0,0,0,0,0,0,0,0,0,0,0,0,0,0,0,0,0,0,0,0,0,0,0,0,0,0,0,0,0,0,0,0,0,0,0,0,0,0,0,0,0,0],"id":14,"left_children":[1,3,5,7,9,11,13,15,-1,17,19,21,23,25,27,29,-1,31,33,-1,35,37,39,-1,-1,41,-1,43,-1,-1,-1,45,-1,47,49,51,53,55,-1,57,59,61,-1,-1,-1,-1,-1,-1,-1,-1,-1,-1,-1,-1,-1,-1,-1,-1,-1,-1,-1,-1,-1],"loss_changes":[5.435831E5,6.3103402E4,6.8744125E4,3.7621383E4,2.1489383E5,7.832603E4,9.009694E4,1.1042051E4,0E0,5.1493312E4,3.2688012E5,4.6447297E4,7.140564E4,3.5211328E3,6.4506562E4,2.5921548E3,0E0,5.731213E4,5.8999125E4,0E0,2.0427561E5,1.406158E5,8.830823E4,0E0,0E0,6.729306E2,0E0,1.1310015E4,0E0,0E0,0E0,4.964662E3,0E0,1.5057203E4,1.8218312E4,7.459E3,7.498597E4,6.3843207E4,0E0,1.911829E4,6.493625E3,1.2866656E2,0E0,0E0,0E0,0E0,0E0,0E0,0E0,0E0,0E0,0E0,0E0,0E0,0E0,0E0,0E0,0E0,0E0,0E0,0E0,0E0,0E0],"parents":[2147483647,0,0,1,1,2,2,3,3,4,4,5,5,6,6,7,7,9,9,10,10,11,11,12,12,13,13,14,14,15,15,17,17,18,18,20,20,21,21,22,22,25,25,27,27,31,31,33,33,34,34,35,35,36,36,37,37,39,39,40,40,41,41],"right_children":[2,4,6,8,10,12,14,16,-1,18,20,22,24,26,28,30,-1,32,34,-1,36,38,40,-1,-1,42,-1,44,-1,-1,-1,46,-1,48,50,52,54,56,-1,58,60,62,-1,-1,-1,-1,-1,-1,-1,-1,-1,-1,-1,-1,-1,-1,-1,-1,-1,-1,-1,-1,-1],"split_conditions":[3.12E2,1E2,3.29E2,9.4E1,1.11E2,3.26E2,2E0,3.1E1,-3.9642857E1,2E0,1.16E2,4E0,3E0,3.39E2,3E0,1E0,-2.289668E1,1.08E2,1.04E2,-7.4291016E1,1.22E2,3.2E2,3.17E2,-5.9442776E1,1.5245704E1,1.2E1,1.8521484E1,5E0,7.1776924E1,-5.9396486E0,7.6095705E0,1.02E2,-3.6219143E1,3E0,1.1E2,1.18E2,1.23E2,3.18E2,8.621016E1,5E0,5E0,1E0,-3.029297E0,2.2700392E1,-1.00318365E1,9.4296875E0,3.823184E1,2.111924E1,-1.582002E1,7.2950516E1,1.2328126E1,1.792793E1,5.5306644E1,-6.287168E1,-4.3697124E0,3.24334E1,-2.5789062E1,1.4835938E0,5.0926174E1,-3.729434E1,-7.5945315E0,5.6396484E0,6.591797E-1],"split_indices":[5,5,5,5,5,5,1,6,0,1,5,1,1,5,6,1,0,5,5,0,5,5,5,0,0,3,0,1,0,0,0,5,0,1,5,5,5,5,0,1,1,1,0,0,0,0,0,0,0,0,0,0,0,0,0,0,0,0,0,0,0,0,0],"split_type":[0,0,0,0,0,0,0,0,0,0,0,0,0,0,0,0,0,0,0,0,0,0,0,0,0,0,0,0,0,0,0,0,0,0,0,0,0,0,0,0,0,0,0,0,0,0,0,0,0,0,0,0,0,0,0,0,0,0,0,0,0,0,0],"sum_hessian":[2.56E2,2.23E2,3.3E1,1.1E1,2.12E2,1.7E1,1.6E1,5E0,6E0,1.1E1,2.01E2,1.4E1,3E0,4E0,1.2E1,4E0,1E0,4E0,7E0,5E0,1.96E2,8E0,6E0,1E0,2E0,3E0,1E0,2E0,1E1,1E0,3E0,3E0,1E0,2E0,5E0,6E0,1.9E2,5E0,3E0,3E0,3E0,2E0,1E0,1E0,1E0,2E0,1E0,1E0,1E0,4E0,1E0,2E0,4E0,1E0,1.89E2,3E0,2E0,1E0,2E0,1E0,2E0,1E0,1E0],"tree_param":{"num_deleted":"0","num_feature":"7","num_nodes":"63","size_leaf_vector":"1"}},{"base_weights":[3.2230742E0,-1.4307026E1,7.608383E1,-2.3672295E0,-3.832535E1,6.50433E1,2.273711E2,-2.2154297E1,2.9555773E1,-4.9712482E1,-1.1738636E1,7.295994E1,-4.6055862E1,8.676621E1,1.5550782E1,-1.0192859E1,-1.1323808E2,4.7275978E1,2.1601E1,-9.967217E1,-3.029058E1,2.8277994E1,-3.662514E1,6.263403E1,6.1058594E1,7.842482E0,-5.6457474E1,-9.469317E1,-2.3181152E1,4.440617E1,1.9828933E0,-2.2008463E1,-1.4546094E2,4.2915483E0,-7.899167E1,-7.443685E0,7.4791016E1,-7.8606026E1,4.6862793E0,4.984915E1,9.363834E1,-4.439158E0,2.1666018E1,-4.690776E1,1.1947168E1,-9.331473E0,4.8427734E0,4.426896E0,3.05584E1,-2.1098606E1,7.171366E0,4.9968753E0,-1.3651465E1,-6.2774418E1,-1.960172E1,-7.4368362E0,1.7484596E1,-1.5893645E1,-4.9615044E1,8.895938E0,-2.8939161E1,6.2657228E0,2.5739258E1,-7.239649E0,-2.8670742E1,4.124121E0,-1.0498829E0,1.8481453E1,-1.611592E1,7.409063E0,3.750659E1],"categories":[],"categories_nodes":[],"categories_segments":[],"categories_sizes":[],"default_left":[0,0,0,0,0,0,0,0,0,0,0,0,0,0,0,0,0,0,0,0,0,0,0,0,0,0,0,0,0,0,0,0,0,0,0,0,0,0,0,0,0,0,0,0,0,0,0,0,0,0,0,0,0,0,0,0,0,0,0,0,0,0,0,0,0,0,0,0,0,0,0],"id":15,"left_children":[1,3,5,7,9,11,13,15,17,19,21,23,-1,-1,-1,25,27,-1,29,31,33,35,37,39,-1,41,43,-1,45,47,49,51,53,55,57,59,61,63,65,67,69,-1,-1,-1,-1,-1,-1,-1,-1,-1,-1,-1,-1,-1,-1,-1,-1,-1,-1,-1,-1,-1,-1,-1,-1,-1,-1,-1,-1,-1,-1],"loss_changes":[3.2934338E5,5.955825E4,6.872566E4,8.908755E4,2.0305938E4,9.425444E4,1.7578312E4,9.363169E4,5.159261E4,4.3555867E4,2.2944914E4,5.06195E4,0E0,0E0,0E0,6.5525816E4,1.7496348E5,0E0,2.3176443E4,4.3028258E4,6.0969734E4,1.551043E4,2.4648432E4,1.3169594E4,0E0,8.414543E4,2.1783769E5,0E0,2.9948472E3,3.9381793E4,4.765168E4,6.208835E3,2.7213875E4,3.5986887E4,2.494764E4,2.2674643E4,5.81291E2,4.162035E3,6.414744E2,4.4705188E4,2.2875945E4,0E0,0E0,0E0,0E0,0E0,0E0,0E0,0E0,0E0,0E0,0E0,0E0,0E0,0E0,0E0,0E0,0E0,0E0,0E0,0E0,0E0,0E0,0E0,0E0,0E0,0E0,0E0,0E0,0E0,0E0],"parents":[2147483647,0,0,1,1,2,2,3,3,4,4,5,5,6,6,7,7,8,8,9,9,10,10,11,11,15,15,16,16,18,18,19,19,20,20,21,21,22,22,23,23,25,25,26,26,28,28,29,29,30,30,31,31,32,32,33,33,34,34,35,35,36,36,37,37,38,38,39,39,40,40],"right_children":[2,4,6,8,10,12,14,16,18,20,22,24,-1,-1,-1,26,28,-1,30,32,34,36,38,40,-1,42,44,-1,46,48,50,52,54,56,58,60,62,64,66,68,70,-1,-1,-1,-1,-1,-1,-1,-1,-1,-1,-1,-1,-1,-1,-1,-1,-1,-1,-1,-1,-1,-1,-1,-1,-1,-1,-1,-1,-1,-1],"split_conditions":[2.96E2,2.28E2,3.43E2,1.75E2,2.75E2,3.42E2,6E0,1.66E2,1.77E2,2E0,2.83E2,3.4E2,-4.6055862E1,8.676621E1,1.5550782E1,2.2E1,1.68E2,4.7275978E1,3E0,2.48E2,5E0,2.8E2,2.89E2,3.29E2,6.1058594E1,1.5E1,2.7E1,-9.469317E1,6E0,2E0,1.89E2,2.2E1,2.56E2,4E0,2.68E2,4E0,1E0,3E0,3E0,3.26E2,2E0,-4.439158E0,2.1666018E1,-4.690776E1,1.1947168E1,-9.331473E0,4.8427734E0,4.426896E0,3.05584E1,-2.1098606E1,7.171366E0,4.9968753E0,-1.3651465E1,-6.2774418E1,-1.960172E1,-7.4368362E0,1.7484596E1,-1.5893645E1,-4.9615044E1,8.895938E0,-2.8939161E1,6.2657228E0,2.5739258E1,-7.239649E0,-2.8670742E1,4.124121E0,-1.0498829E0,1.8481453E1,-1.611592E1,7.409063E0,3.750659E1],"split_indices":[5,5,5,5,5,5,1,5,5,1,5,5,0,0,0,6,5,0,1,5,1,5,5,5,0,6,6,0,1,1,5,6,5,1,5,1,1,1,1,5,1,0,0,0,0,0,0,0,0,0,0,0,0,0,0,0,0,0,0,0,0,0,0,0,0,0,0,0,0,0,0],"split_type":[0,0,0,0,0,0,0,0,0,0,0,0,0,0,0,0,0,0,0,0,0,0,0,0,0,0,0,0,0,0,0,0,0,0,0,0,0,0,0,0,0,0,0,0,0,0,0,0,0,0,0,0,0,0,0,0,0,0,0,0,0,0,0,0,0,0,0,0,0,0,0],"sum_hessian":[2.56E2,2.07E2,4.9E1,1.39E2,6.8E1,4.7E1,2E0,8.6E1,5.3E1,4.7E1,2.1E1,4.6E1,1E0,1E0,1E0,7.7E1,9E0,2E0,5.1E1,1.2E1,3.5E1,8E0,1.3E1,4.4E1,2E0,5.6E1,2.1E1,2E0,7E0,2.3E1,2.8E1,5E0,7E0,2.1E1,1.4E1,5E0,3E0,6E0,7E0,3.3E1,1.1E1,4.2E1,1.4E1,1E1,1.1E1,6E0,1E0,1.6E1,7E0,6E0,2.2E1,2E0,3E0,3E0,4E0,1.4E1,7E0,1.2E1,2E0,4E0,1E0,1E0,2E0,2E0,4E0,3E0,4E0,3E1,3E0,4E0,7E0],"tree_param":{"num_deleted":"0","num_feature":"7","num_nodes":"71","size_leaf_vector":"1"}},{"base_weights":[2.0564885E0,-1.1053054E1,5.6551056E1,-1.7398381E0,-2.8999119E1,4.6828247E1,1.9326562E2,-1.6851652E1,2.3576847E1,-3.957869E1,-1.0292462E1,5.3377453E1,-3.914766E1,7.375137E1,1.3218164E1,1.04098145E2,-2.2410551E1,3.78209E1,1.6955742E1,-1.1876953E1,-6.1265E1,2.6094448E1,-4.5944195E1,4.489492E1,1.6282292E2,3.809043E1,5.323242E0,-1.2691512E1,-8.575586E1,3.2571655E1,-1.023715E1,-4.2691666E1,5.5851284E1,-1.36149E2,-3.0451685E1,-4.979492E1,6.1429688E1,-2.672154E0,-7.806421E1,3.2331482E1,7.040458E1,6.1494728E1,1.1775586E1,-1.7560522E1,1.9732054E0,-6.067603E1,-5.0362797E0,5.5035806E0,2.7348536E1,1.363125E1,-7.0547976E0,1.7846094E1,-1.8896215E1,4.0626175E1,-9.181641E-1,-9.511524E0,-5.1475666E1,-3.0624352E0,-1.3273883E1,2.9458008E0,-2.0145996E1,4.252954E1,2.024414E0,-1.1337012E1,3.1205275E1,-3.2669415E1,-6.001758E0,1.3116136E1,-4.8108986E1,-3.2265627E-1,2.4722267E1],"categories":[],"categories_nodes":[],"categories_segments":[],"categories_sizes":[],"default_left":[0,0,0,0,0,0,0,0,0,0,0,0,0,0,0,0,0,0,0,0,0,0,0,0,0,0,0,0,0,0,0,0,0,0,0,0,0,0,0,0,0,0,0,0,0,0,0,0,0,0,0,0,0,0,0,0,0,0,0,0,0,0,0,0,0,0,0,0,0,0,0],"id":16,"left_children":[1,3,5,7,9,11,13,15,17,19,21,23,-1,-1,-1,25,27,-1,29,31,33,35,37,39,41,-1,-1,43,45,47,49,51,53,55,57,59,61,63,65,67,69,-1,-1,-1,-1,-1,-1,-1,-1,-1,-1,-1,-1,-1,-1,-1,-1,-1,-1,-1,-1,-1,-1,-1,-1,-1,-1,-1,-1,-1,-1],"loss_changes":[1.8422556E5,3.471375E4,5.7412188E4,5.3193496E4,1.3644133E4,6.270811E4,1.2700398E4,6.082715E4,3.3150414E4,2.6306047E4,3.6224816E4,3.6323688E4,0E0,0E0,0E0,5.646707E3,5.0626695E4,0E0,2.1565535E4,4.6211934E4,5.3539617E4,4.0600855E4,1.9249979E4,1.2145719E4,7.5831094E3,0E0,0E0,6.575314E4,8.498563E4,2.5000438E4,1.5115109E4,3.4853758E4,3.322747E4,2.0467805E4,4.8541133E3,5.8334404E3,4.2972098E4,3.0157854E4,1.2142699E4,7.723819E4,1.2100266E4,0E0,0E0,0E0,0E0,0E0,0E0,0E0,0E0,0E0,0E0,0E0,0E0,0E0,0E0,0E0,0E0,0E0,0E0,0E0,0E0,0E0,0E0,0E0,0E0,0E0,0E0,0E0,0E0,0E0,0E0],"parents":[2147483647,0,0,1,1,2,2,3,3,4,4,5,5,6,6,7,7,8,8,9,9,10,10,11,11,15,15,16,16,18,18,19,19,20,20,21,21,22,22,23,23,24,24,27,27,28,28,29,29,30,30,31,31,32,32,33,33,34,34,35,35,36,36,37,37,38,38,39,39,40,40],"right_children":[2,4,6,8,10,12,14,16,18,20,22,24,-1,-1,-1,26,28,-1,30,32,34,36,38,40,42,-1,-1,44,46,48,50,52,54,56,58,60,62,64,66,68,70,-1,-1,-1,-1,-1,-1,-1,-1,-1,-1,-1,-1,-1,-1,-1,-1,-1,-1,-1,-1,-1,-1,-1,-1,-1,-1,-1,-1,-1,-1],"split_conditions":[2.96E2,2.26E2,3.43E2,1.75E2,2E1,3.42E2,6E0,2E0,1.77E2,1.1E1,2.5E1,3.4E2,-3.914766E1,7.375137E1,1.3218164E1,4E0,1.65E2,3.78209E1,1.9E1,8E0,1.4E1,2.36E2,2.43E2,3.27E2,3E0,3.809043E1,5.323242E0,2E0,1.68E2,1.4E1,1E0,1E0,9E0,1.2E1,3E0,1E0,4E0,2.42E2,2.71E2,3.26E2,3E0,6.1494728E1,1.1775586E1,-1.7560522E1,1.9732054E0,-6.067603E1,-5.0362797E0,5.5035806E0,2.7348536E1,1.363125E1,-7.0547976E0,1.7846094E1,-1.8896215E1,4.0626175E1,-9.181641E-1,-9.511524E0,-5.1475666E1,-3.0624352E0,-1.3273883E1,2.9458008E0,-2.0145996E1,4.252954E1,2.024414E0,-1.1337012E1,3.1205275E1,-3.2669415E1,-6.001758E0,1.3116136E1,-4.8108986E1,-3.2265627E-1,2.4722267E1],"split_indices":[5,5,5,5,6,5,1,6,5,6,6,5,0,0,0,1,5,0,6,6,6,5,5,5,1,0,0,1,5,6,1,1,6,6,1,1,1,5,5,5,6,0,0,0,0,0,0,0,0,0,0,0,0,0,0,0,0,0,0,0,0,0,0,0,0,0,0,0,0,0,0],"split_type":[0,0,0,0,0,0,0,0,0,0,0,0,0,0,0,0,0,0,0,0,0,0,0,0,0,0,0,0,0,0,0,0,0,0,0,0,0,0,0,0,0,0,0,0,0,0,0,0,0,0,0,0,0,0,0,0,0,0,0,0,0,0,0,0,0,0,0,0,0,0,0],"sum_hessian":[2.56E2,2.07E2,4.9E1,1.37E2,7E1,4.7E1,2E0,8.6E1,5.1E1,4.4E1,2.6E1,4.6E1,1E0,1E0,1E0,3E0,8.3E1,2E0,4.9E1,2E1,2.4E1,1.3E1,1.3E1,4.4E1,2E0,2E0,1E0,7.3E1,1E1,3.1E1,1.8E1,1.4E1,6E0,6E0,1.8E1,4E0,9E0,6E0,7E0,3.1E1,1.3E1,1E0,1E0,2.1E1,5.2E1,3E0,7E0,2.6E1,5E0,3E0,1.5E1,2E0,1.2E1,2E0,4E0,2E0,4E0,8E0,1E1,1E0,3E0,3E0,6E0,5E0,1E0,4E0,3E0,3E1,1E0,2E0,1.1E1],"tree_param":{"num_deleted":"0","num_feature":"7","num_nodes":"71","size_leaf_vector":"1"}},{"base_weights":[1.9055281E0,-6.0680194E0,5.438109E1,-6.182015E1,-2.8985658E0,4.237903E1,1.6427605E2,-2.6109592E1,-3.801416E1,1.05733505E2,-7.6536393E0,5.0902092E1,-3.327539E1,6.268887E1,1.1235352E1,9.327637E0,-4.5382812E1,3.0880077E1,4.783207E1,-9.0154945E1,-3.845693E0,7.7469666E1,1.7398699E1,-1.7487305E0,4.896875E0,-7.437744E1,8.404297E0,1.8118507E1,-1.3076954E1,2.6950195E1,-1.5319922E2,9.169629E1,-9.989017E0,5.4590088E1,6.653145E1,-9.172168E1,5.2322266E1,2.5989258E0,-3.1483595E1,-1.8603517E0,5.6422853E0,-3.140215E1,3.1714846E1,-5.2724537E1,-6.067969E0,1.4001138E1,8.804707E1,-2.6308477E1,-1.6627252E0,2.449177E1,-2.6950783E1,-3.644004E1,-1.2395312E1,3.525E1,8.261016E0],"categories":[],"categories_nodes":[],"categories_segments":[],"categories_sizes":[],"default_left":[0,0,0,0,0,0,0,0,0,0,0,0,0,0,0,0,0,0,0,0,0,0,0,0,0,0,0,0,0,0,0,0,0,0,0,0,0,0,0,0,0,0,0,0,0,0,0,0,0,0,0,0,0,0,0],"id":17,"left_children":[1,3,5,7,9,11,13,15,-1,17,19,21,-1,-1,-1,23,25,27,-1,29,31,33,35,-1,-1,37,39,-1,-1,41,43,45,47,49,-1,51,53,-1,-1,-1,-1,-1,-1,-1,-1,-1,-1,-1,-1,-1,-1,-1,-1,-1,-1],"loss_changes":[1.0786299E5,3.9402457E4,3.7882984E4,2.4500246E4,1.1083514E5,4.745588E4,9.176305E3,6.57022E3,0E0,3.1257656E4,6.4056195E4,2.6245352E4,0E0,0E0,0E0,5.192504E2,9.982314E3,1.3622486E4,0E0,7.057402E4,1.1654417E5,4.402008E4,6.196218E4,0E0,0E0,1.1062637E4,5.724654E2,0E0,0E0,5.2535676E4,1.4435797E4,9.533396E4,6.3781984E4,6.9839734E4,0E0,9.783594E2,1.6150023E4,0E0,0E0,0E0,0E0,0E0,0E0,0E0,0E0,0E0,0E0,0E0,0E0,0E0,0E0,0E0,0E0,0E0,0E0],"parents":[2147483647,0,0,1,1,2,2,3,3,4,4,5,5,6,6,7,7,9,9,10,10,11,11,15,15,16,16,17,17,19,19,20,20,21,21,22,22,25,25,26,26,29,29,30,30,31,31,32,32,33,33,35,35,36,36],"right_children":[2,4,6,8,10,12,14,16,-1,18,20,22,-1,-1,-1,24,26,28,-1,30,32,34,36,-1,-1,38,40,-1,-1,42,44,46,48,50,-1,52,54,-1,-1,-1,-1,-1,-1,-1,-1,-1,-1,-1,-1,-1,-1,-1,-1,-1,-1],"split_conditions":[3.12E2,1E2,3.43E2,9.7E1,1.08E2,3.42E2,6E0,4E0,-3.801416E1,1.04E2,1.16E2,1.7E1,-3.327539E1,6.268887E1,1.1235352E1,1E0,9.5E1,3E0,4.783207E1,1.11E2,1.27E2,1.6E1,3.24E2,-1.7487305E0,4.896875E0,9E1,3E0,1.8118507E1,-1.3076954E1,2E0,6E0,1.26E2,1.36E2,1.4E1,6.653145E1,5E0,3.26E2,2.5989258E0,-3.1483595E1,-1.8603517E0,5.6422853E0,-3.140215E1,3.1714846E1,-5.2724537E1,-6.067969E0,1.4001138E1,8.804707E1,-2.6308477E1,-1.6627252E0,2.449177E1,-2.6950783E1,-3.644004E1,-1.2395312E1,3.525E1,8.261016E0],"split_indices":[5,5,5,5,5,5,1,6,0,5,5,6,0,0,0,1,5,1,0,5,5,6,5,0,0,5,1,0,0,1,1,5,5,6,0,1,5,0,0,0,0,0,0,0,0,0,0,0,0,0,0,0,0,0,0],"split_type":[0,0,0,0,0,0,0,0,0,0,0,0,0,0,0,0,0,0,0,0,0,0,0,0,0,0,0,0,0,0,0,0,0,0,0,0,0,0,0,0,0,0,0,0,0,0,0,0,0,0,0,0,0,0,0],"sum_hessian":[2.56E2,2.23E2,3.3E1,1.1E1,2.12E2,3.1E1,2E0,8E0,3E0,8E0,2.04E2,3E1,1E0,1E0,1E0,3E0,5E0,4E0,4E0,8E0,1.96E2,1.6E1,1.4E1,1E0,2E0,3E0,2E0,3E0,1E0,3E0,5E0,1.1E1,1.85E2,1.5E1,1E0,3E0,1.1E1,1E0,2E0,1E0,1E0,1E0,2E0,4E0,1E0,1E1,1E0,9E0,1.76E2,1.3E1,2E0,1E0,2E0,2E0,9E0],"tree_param":{"num_deleted":"0","num_feature":"7","num_nodes":"55","size_leaf_vector":"1"}},{"base_weights":[1.7533287E0,-2.8107185E0,5.9071957E1,-1.6423647E0,-4.2131836E1,-1.4110937E1,7.952812E1,-6.151372E0,2.5592602E1,-2.972168E1,7.249805E0,-1.71875E1,9.572957E1,-4.8271484E1,-3.514296E0,5.389258E1,-9.613159E0,-1.265625E0,-1.1044922E1,1.0044141E1,-1.7778517E1,4.648281E1,7.087784E1,-2.0715929E1,-2.9461084E1,7.988802E1,-7.5309978E0,2.2809204E1,1.6475293E2,1.1680439E1,-7.641406E1,2.8300781E0,1.2711263E2,2.194922E0,-1.0785449E1,6.787149E0,3.6352383E1,-2.207234E1,-1.3611786E0,1.6294483E1,-1.7209923E1,1.4865821E1,5.5990627E1,-3.9104939E0,2.9523048E1,-3.097383E1,-9.916407E0,1.2332344E1,-2.828379E1,4.1940468E1,9.550196E0],"categories":[],"categories_nodes":[],"categories_segments":[],"categories_sizes":[],"default_left":[0,0,0,0,0,0,0,0,0,0,0,0,0,0,0,0,0,0,0,0,0,0,0,0,0,0,0,0,0,0,0,0,0,0,0,0,0,0,0,0,0,0,0,0,0,0,0,0,0,0,0],"id":18,"left_children":[1,3,5,7,-1,9,11,13,15,17,-1,19,21,23,25,27,29,-1,-1,-1,-1,-1,31,33,-1,35,37,39,41,43,45,47,49,-1,-1,-1,-1,-1,-1,-1,-1,-1,-1,-1,-1,-1,-1,-1,-1,-1,-1],"loss_changes":[6.73985E4,3.820032E4,2.9566008E4,2.938446E4,0E0,3.705913E3,2.5149344E4,2.2600516E4,3.439303E4,5.684265E2,0E0,8.379556E3,8.148125E3,1.447651E4,6.559207E4,6.1714477E4,2.3651455E4,0E0,0E0,0E0,0E0,0E0,4.173343E4,4.106833E3,0E0,1.8536754E4,3.6441477E4,4.3531723E4,8.351719E2,2.914907E4,1.2409141E3,2.6178377E4,2.8034688E3,0E0,0E0,0E0,0E0,0E0,0E0,0E0,0E0,0E0,0E0,0E0,0E0,0E0,0E0,0E0,0E0,0E0,0E0],"parents":[2147483647,0,0,1,1,2,2,3,3,5,5,6,6,7,7,8,8,9,9,11,11,12,12,13,13,14,14,15,15,16,16,22,22,23,23,25,25,26,26,27,27,28,28,29,29,30,30,31,31,32,32],"right_children":[2,4,6,8,-1,10,12,14,16,18,-1,20,22,24,26,28,30,-1,-1,-1,-1,-1,32,34,-1,36,38,40,42,44,46,48,50,-1,-1,-1,-1,-1,-1,-1,-1,-1,-1,-1,-1,-1,-1,-1,-1,-1,-1],"split_conditions":[3.27E2,3.26E2,2E0,2.93E2,-4.2131836E1,3.39E2,3E0,1E2,4E0,3.32E2,7.249805E0,5E0,3E0,9.7E1,1.08E2,3.2E2,3.17E2,-1.265625E0,-1.1044922E1,1.0044141E1,-1.7778517E1,4.648281E1,5E0,4E0,-2.9461084E1,1.04E2,1.15E2,3.13E2,1E0,3.15E2,5E0,3.42E2,3.44E2,2.194922E0,-1.0785449E1,6.787149E0,3.6352383E1,-2.207234E1,-1.3611786E0,1.6294483E1,-1.7209923E1,1.4865821E1,5.5990627E1,-3.9104939E0,2.9523048E1,-3.097383E1,-9.916407E0,1.2332344E1,-2.828379E1,4.1940468E1,9.550196E0],"split_indices":[5,5,1,5,0,5,6,5,1,5,0,1,1,5,5,5,5,0,0,0,0,0,1,6,0,5,5,5,1,5,1,5,5,0,0,0,0,0,0,0,0,0,0,0,0,0,0,0,0,0,0],"split_type":[0,0,0,0,0,0,0,0,0,0,0,0,0,0,0,0,0,0,0,0,0,0,0,0,0,0,0,0,0,0,0,0,0,0,0,0,0,0,0,0,0,0,0,0,0,0,0,0,0,0,0],"sum_hessian":[2.56E2,2.38E2,1.8E1,2.37E2,1E0,4E0,1.4E1,2.04E2,3.3E1,3E0,1E0,2E0,1.2E1,1.1E1,1.93E2,1.8E1,1.5E1,1E0,2E0,1E0,1E0,2E0,1E1,8E0,3E0,8E0,1.85E2,1.5E1,3E0,1.2E1,3E0,5E0,5E0,3E0,5E0,4E0,4E0,7E0,1.78E2,1.1E1,4E0,1E0,2E0,1E1,2E0,1E0,2E0,4E0,1E0,4E0,1E0],"tree_param":{"num_deleted":"0","num_feature":"7","num_nodes":"51","size_leaf_vector":"1"}},{"base_weights":[1.4742066E0,4.4929534E-2,1.2247135E2,-4.5799913E0,1.7344727E1,4.6994534E1,8.1175785E0,1.6320816E0,-2.4544394E1,2.0696012E1,-2.4041018E1,1.7740788E1,-1.0513036E1,-5.5921318E1,-1.1292355E1,1.5480277E1,1.0246484E2,-1.2217448E1,7.558339E1,4.3451065E1,-2.3858046E1,-1.2150065E1,-2.1236589E2,-3.1424416E1,-5.4628334E0,2.460664E1,2.3315873E0,4.162383E1,4.4853516E0,-6.127263E0,1.7256447E1,2.468853E1,-1.0811133E1,2.8708742E1,4.5143822E-1,-1.5950236E1,2.5935771E0,-1.6096388E1,7.5482984E0,-7.604356E1,-1.9521095E1,1.4870049E0,-1.3908149E1,2.1226988E0,2.1579712E1,-3.802422E0,9.053101E0],"categories":[],"categories_nodes":[],"categories_segments":[],"categories_sizes":[],"default_left":[0,0,0,0,0,0,0,0,0,0,0,0,0,0,0,0,0,0,0,0,0,0,0,0,0,0,0,0,0,0,0,0,0,0,0,0,0,0,0,0,0,0,0,0,0,0,0],"id":19,"left_children":[1,3,5,7,9,-1,-1,11,13,15,-1,17,19,21,23,25,27,29,31,33,35,37,39,-1,41,43,45,-1,-1,-1,-1,-1,-1,-1,-1,-1,-1,-1,-1,-1,-1,-1,-1,-1,-1,-1,-1],"loss_changes":[4.443968E4,2.0482037E4,5.5441016E3,2.5092162E4,1.9299672E4,0E0,0E0,3.0511041E4,1.9327309E4,2.1017496E4,0E0,1.170252E5,6.5130137E4,9.3288586E4,1.8495848E4,6.0626113E3,7.4508984E3,2.6929715E4,2.0196469E4,3.930249E4,6.9050625E4,1.9932953E4,1.6732031E3,0E0,1.4718343E4,2.4381023E4,9.575349E3,0E0,0E0,0E0,0E0,0E0,0E0,0E0,0E0,0E0,0E0,0E0,0E0,0E0,0E0,0E0,0E0,0E0,0E0,0E0,0E0],"parents":[2147483647,0,0,1,1,2,2,3,3,4,4,7,7,8,8,9,9,11,11,12,12,13,13,14,14,15,15,16,16,17,17,18,18,19,19,20,20,21,21,22,22,24,24,25,25,26,26],"right_children":[2,4,6,8,10,-1,-1,12,14,16,-1,18,20,22,24,26,28,30,32,34,36,38,40,-1,42,44,46,-1,-1,-1,-1,-1,-1,-1,-1,-1,-1,-1,-1,-1,-1,-1,-1,-1,-1,-1,-1],"split_conditions":[3.43E2,2.9E2,6E0,2.43E2,3.42E2,4.6994534E1,8.1175785E0,3E0,2.56E2,3.4E2,-2.4041018E1,2E0,7E0,1.2E1,2E0,4E0,3E0,2.9E1,3.1E1,1.53E2,1.69E2,4E0,2E0,-3.1424416E1,2.5E1,3E0,6E0,4.162383E1,4.4853516E0,-6.127263E0,1.7256447E1,2.468853E1,-1.0811133E1,2.8708742E1,4.5143822E-1,-1.5950236E1,2.5935771E0,-1.6096388E1,7.5482984E0,-7.604356E1,-1.9521095E1,1.4870049E0,-1.3908149E1,2.1226988E0,2.1579712E1,-3.802422E0,9.053101E0],"split_indices":[5,5,1,5,5,0,0,1,5,5,0,1,6,6,6,1,1,6,6,5,5,1,1,0,6,1,1,0,0,0,0,0,0,0,0,0,0,0,0,0,0,0,0,0,0,0,0],"split_type":[0,0,0,0,0,0,0,0,0,0,0,0,0,0,0,0,0,0,0,0,0,0,0,0,0,0,0,0,0,0,0,0,0,0,0,0,0,0,0,0,0,0,0,0,0,0,0],"sum_hessian":[2.56E2,2.54E2,2E0,2.01E2,5.3E1,1E0,1E0,1.54E2,4.7E1,5.2E1,1E0,6.6E1,8.8E1,1.3E1,3.4E1,5E1,2E0,4.4E1,2.2E1,1.7E1,7.1E1,1.1E1,2E0,1E0,3.3E1,2.9E1,2.1E1,1E0,1E0,4E1,4E0,2.1E1,1E0,7E0,1E1,3.7E1,3.4E1,5E0,6E0,1E0,1E0,2.7E1,6E0,2.2E1,7E0,1.4E1,7E0],"tree_param":{"num_deleted":"0","num_feature":"7","num_nodes":"47","size_leaf_vector":"1"}},{"base_weights":[1.0280809E0,-8.450184E-1,6.8045204E1,-3.8528484E1,1.0426757E0,3.2803123E1,1.0410026E2,6.219434E0,-4.5800426E1,6.1942707E1,-2.1531456E0,7.506152E1,-2.043457E1,3.9945118E1,6.9E0,-2.2649902E1,-2.4195412E1,1.3323438E1,8.4586914E1,-1.4984505E2,-1.9178483E-1,9.1609375E1,3.8126955E0,-3.829883E1,-5.6007814E0,5.409082E1,-2.2461914E1,2.5358074E0,1.1151465E2,-4.77334E0,-6.2656937E1,6.6604294E1,-3.2549455E0,5.844141E0,3.538008E1,-8.967774E-1,-1.4721681E1,2.1073244E0,-3.1539552E0,4.625391E0,1.8552736E1,1.0882031E1,-9.740918E0,3.8168324E1,4.942383E0,-7.720166E0,3.2956223E1,-4.6111916E1,-3.4508193E-1],"categories":[],"categories_nodes":[],"categories_segments":[],"categories_sizes":[],"default_left":[0,0,0,0,0,0,0,0,0,0,0,0,0,0,0,0,0,0,0,0,0,0,0,0,0,0,0,0,0,0,0,0,0,0,0,0,0,0,0,0,0,0,0,0,0,0,0,0,0],"id":20,"left_children":[1,3,5,7,9,11,13,-1,15,17,19,21,-1,-1,-1,23,-1,25,27,29,31,33,-1,35,37,39,-1,41,43,-1,-1,45,47,-1,-1,-1,-1,-1,-1,-1,-1,-1,-1,-1,-1,-1,-1,-1,-1],"loss_changes":[3.2318637E4,1.7895021E4,5.4797754E3,6.1207266E3,4.6843523E4,2.6436076E4,4.005461E3,0E0,7.048248E3,1.2084344E4,6.630732E4,2.9629414E3,0E0,0E0,0E0,1.9199004E3,0E0,2.2027645E4,1.7392824E4,2.0387742E4,4.6662613E4,3.3988086E3,0E0,1.3749316E3,3.8394916E2,2.45625E2,0E0,4.7208E3,6.864211E3,0E0,0E0,4.2763027E4,6.885311E4,0E0,0E0,0E0,0E0,0E0,0E0,0E0,0E0,0E0,0E0,0E0,0E0,0E0,0E0,0E0,0E0],"parents":[2147483647,0,0,1,1,2,2,3,3,4,4,5,5,6,6,8,8,9,9,10,10,11,11,15,15,17,17,18,18,19,19,20,20,21,21,23,23,24,24,25,25,27,27,28,28,31,31,32,32],"right_children":[2,4,6,8,10,12,14,-1,16,18,20,22,-1,-1,-1,24,-1,26,28,30,32,34,-1,36,38,40,-1,42,44,-1,-1,46,48,-1,-1,-1,-1,-1,-1,-1,-1,-1,-1,-1,-1,-1,-1,-1,-1],"split_conditions":[3.39E2,1E2,5E0,9E1,1.11E2,4E0,6E0,6.219434E0,8E0,2E0,1.13E2,3E0,-2.043457E1,3.9945118E1,6.9E0,3E0,-2.4195412E1,1.08E2,1.04E2,5E0,1.22E2,2E0,3.8126955E0,1E0,4E0,1.01E2,-2.2461914E1,3E0,6E0,-4.77334E0,-6.2656937E1,1.16E2,1.24E2,5.844141E0,3.538008E1,-8.967774E-1,-1.4721681E1,2.1073244E0,-3.1539552E0,4.625391E0,1.8552736E1,1.0882031E1,-9.740918E0,3.8168324E1,4.942383E0,-7.720166E0,3.2956223E1,-4.6111916E1,-3.4508193E-1],"split_indices":[5,5,1,5,5,1,1,0,6,1,5,1,0,0,0,1,0,5,5,1,5,1,0,1,1,5,0,1,1,0,0,5,5,0,0,0,0,0,0,0,0,0,0,0,0,0,0,0,0],"split_type":[0,0,0,0,0,0,0,0,0,0,0,0,0,0,0,0,0,0,0,0,0,0,0,0,0,0,0,0,0,0,0,0,0,0,0,0,0,0,0,0,0,0,0,0,0,0,0,0,0],"sum_hessian":[2.56E2,2.5E2,6E0,1.1E1,2.39E2,4E0,2E0,1E0,1E1,1.1E1,2.28E2,3E0,1E0,1E0,1E0,7E0,3E0,4E0,7E0,2E0,2.26E2,2E0,1E0,3E0,4E0,3E0,1E0,2E0,5E0,1E0,1E0,9E0,2.17E2,1E0,1E0,1E0,2E0,1E0,3E0,1E0,2E0,1E0,1E0,4E0,1E0,3E0,6E0,2E0,2.15E2],"tree_param":{"num_deleted":"0","num_feature":"7","num_nodes":"49","size_leaf_vector":"1"}},{"base_weights":[6.9310856E-1,-2.8894377E0,2.6904234E1,-1.9315277E0,-7.376953E1,4.9625E1,-6.3958335E-1,-2.9224155E0,3.3004105E1,-2.7251955E1,-5.944336E0,3.398999E1,4.4967773E1,-6.3817383E1,2.0472982E1,1.3248419E1,-6.617785E0,5.2041573E1,-6.158073E1,-2.5706251E1,-2.7964844E1,2.0758595E1,3.8089843E0,-9.11801E-2,1.1197969E2,-9.133259E1,-3.2300935E0,1.2182292E1,1.031569E2,-4.670508E0,-2.3040821E1,-2.615039E0,-9.969141E0,-3.6078518E1,3.0957031E1,2.7914925E0,-1.919004E1,7.078975E1,6.59751E0,-9.028126E0,-3.8921486E1,3.9541702E1,-1.8947401E0,8.453907E0,-1.7369532E1,4.2086136E1,5.779297E0,-3.634375E0,1.3498159E1],"categories":[],"categories_nodes":[],"categories_segments":[],"categories_sizes":[],"default_left":[0,0,0,0,0,0,0,0,0,0,0,0,0,0,0,0,0,0,0,0,0,0,0,0,0,0,0,0,0,0,0,0,0,0,0,0,0,0,0,0,0,0,0,0,0,0,0,0,0],"id":21,"left_children":[1,3,5,7,9,11,13,15,-1,-1,-1,17,-1,19,21,23,25,27,29,-1,31,-1,33,35,37,39,41,43,45,-1,-1,-1,-1,-1,47,-1,-1,-1,-1,-1,-1,-1,-1,-1,-1,-1,-1,-1,-1],"loss_changes":[2.42107E4,1.5270073E4,1.9432055E4,2.527966E4,9.6314746E2,2.155579E4,2.1314213E4,1.347329E4,0E0,0E0,0E0,3.0808002E4,0E0,7.401592E2,9.479342E3,5.5325703E4,5.2223723E4,2.72672E4,9.0550977E2,0E0,1.4395752E1,0E0,3.740572E4,2.3402246E4,5.0597023E4,1.2559133E4,7.4584945E4,1.1721543E4,1.5987156E4,0E0,0E0,0E0,0E0,0E0,5.986382E3,0E0,0E0,0E0,0E0,0E0,0E0,0E0,0E0,0E0,0E0,0E0,0E0,0E0,0E0],"parents":[2147483647,0,0,1,1,2,2,3,3,4,4,5,5,6,6,7,7,11,11,13,13,14,14,15,15,16,16,17,17,18,18,20,20,22,22,23,23,24,24,25,25,26,26,27,27,28,28,34,34],"right_children":[2,4,6,8,10,12,14,16,-1,-1,-1,18,-1,20,22,24,26,28,30,-1,32,-1,34,36,38,40,42,44,46,-1,-1,-1,-1,-1,48,-1,-1,-1,-1,-1,-1,-1,-1,-1,-1,-1,-1,-1,-1],"split_conditions":[3.15E2,3.13E2,1.7E1,3.12E2,4E0,1.6E1,3.24E2,1.3E2,3.3004105E1,-2.7251955E1,-5.944336E0,1.4E1,4.4967773E1,5E0,3.26E2,1.26E2,1.36E2,9E0,2E0,-2.5706251E1,6E0,2.0758595E1,3.27E2,1.22E2,1.27E2,1.33E2,1.39E2,3.42E2,6E0,-4.670508E0,-2.3040821E1,-2.615039E0,-9.969141E0,-3.6078518E1,2E0,2.7914925E0,-1.919004E1,7.078975E1,6.59751E0,-9.028126E0,-3.8921486E1,3.9541702E1,-1.8947401E0,8.453907E0,-1.7369532E1,4.2086136E1,5.779297E0,-3.634375E0,1.3498159E1],"split_indices":[5,5,6,5,1,6,5,5,0,0,0,6,0,1,5,5,5,6,1,0,1,0,5,5,5,5,5,5,1,0,0,0,0,0,1,0,0,0,0,0,0,0,0,0,0,0,0,0,0],"split_type":[0,0,0,0,0,0,0,0,0,0,0,0,0,0,0,0,0,0,0,0,0,0,0,0,0,0,0,0,0,0,0,0,0,0,0,0,0,0,0,0,0,0,0,0,0,0,0,0,0],"sum_hessian":[2.56E2,2.26E2,3E1,2.24E2,2E0,1.6E1,1.4E1,2.23E2,1E0,1E0,1E0,1.5E1,1E0,3E0,1.1E1,4.1E1,1.82E2,1.3E1,2E0,1E0,2E0,2E0,9E0,3.7E1,4E0,6E0,1.76E2,8E0,5E0,1E0,1E0,1E0,1E0,1E0,8E0,3.3E1,4E0,1E0,3E0,3E0,3E0,3E0,1.73E2,7E0,1E0,3E0,2E0,2E0,6E0],"tree_param":{"num_deleted":"0","num_feature":"7","num_nodes":"49","size_leaf_vector":"1"}},{"base_weights":[7.30028E-1,-5.4261225E-1,5.4059246E1,-3.2414875E1,1.0466399E0,2.8805275E1,2.6464062E1,4.867969E0,-3.8311966E1,2.8938578E1,-2.7557676E0,-2.8424479E1,7.253125E1,-2.0379883E1,-1.9379444E1,1.3709925E1,1.5635027E2,-2.9462639E1,1.7834059E0,1.9728516E0,-1.4763867E1,2.764043E1,4.998633E0,-3.9570965E1,-7.3876953E0,2.6662788E1,-4.8615234E1,6.017139E1,1.0186231E1,-8.813412E0,-9.734092E1,7.496807E1,-9.528782E-1,-1.1809571E0,-1.6625977E1,-3.3632815E-1,-3.072217E0,2.0159643E0,2.9133986E1,-3.3051758E1,8.744141E0,-1.0353197E1,1.6494402E1,-1.482129E1,6.4538974E-1],"categories":[],"categories_nodes":[],"categories_segments":[],"categories_sizes":[],"default_left":[0,0,0,0,0,0,0,0,0,0,0,0,0,0,0,0,0,0,0,0,0,0,0,0,0,0,0,0,0,0,0,0,0,0,0,0,0,0,0,0,0,0,0,0,0],"id":22,"left_children":[1,3,5,7,9,-1,11,-1,13,15,17,19,21,23,-1,25,27,29,31,-1,-1,-1,-1,33,35,37,39,-1,-1,41,-1,-1,43,-1,-1,-1,-1,-1,-1,-1,-1,-1,-1,-1,-1],"loss_changes":[1.7471643E4,1.2798499E4,4.4060703E3,4.063788E3,2.563937E4,0E0,1.4704466E4,0E0,3.8685234E3,5.412539E4,2.5873922E4,2.5064565E3,1.7505361E3,1.7023347E3,0E0,2.309303E4,9.427242E3,1.8598203E5,1.2447679E5,0E0,0E0,0E0,0E0,1.4761445E3,9.579187E1,3.1662127E4,2.714542E4,0E0,0E0,5.1077914E4,0E0,0E0,2.747941E4,0E0,0E0,0E0,0E0,0E0,0E0,0E0,0E0,0E0,0E0,0E0,0E0],"parents":[2147483647,0,0,1,1,2,2,3,3,4,4,6,6,8,8,9,9,10,10,11,11,12,12,13,13,15,15,16,16,17,17,18,18,23,23,24,24,25,25,26,26,29,29,32,32],"right_children":[2,4,6,8,10,-1,12,-1,14,16,18,20,22,24,-1,26,28,30,32,-1,-1,-1,-1,34,36,38,40,-1,-1,42,-1,-1,44,-1,-1,-1,-1,-1,-1,-1,-1,-1,-1,-1,-1],"split_conditions":[3.4E2,1E2,3E0,9E1,1.28E2,2.8805275E1,5E0,4.867969E0,8E0,1.26E2,1.58E2,4E0,6E0,2E0,-1.9379444E1,1.22E2,6E0,1.57E2,1.59E2,1.9728516E0,-1.4763867E1,2.764043E1,4.998633E0,1E0,4E0,1.18E2,3E0,6.017139E1,1.0186231E1,1.49E2,-9.734092E1,7.496807E1,1.69E2,-1.1809571E0,-1.6625977E1,-3.3632815E-1,-3.072217E0,2.0159643E0,2.9133986E1,-3.3051758E1,8.744141E0,-1.0353197E1,1.6494402E1,-1.482129E1,6.4538974E-1],"split_indices":[5,5,1,5,5,0,1,0,6,5,5,1,1,1,0,5,1,5,5,0,0,0,0,1,1,5,1,0,0,5,0,0,5,0,0,0,0,0,0,0,0,0,0,0,0],"split_type":[0,0,0,0,0,0,0,0,0,0,0,0,0,0,0,0,0,0,0,0,0,0,0,0,0,0,0,0,0,0,0,0,0,0,0,0,0,0,0,0,0,0,0,0,0],"sum_hessian":[2.56E2,2.51E2,5E0,1.1E1,2.4E2,1E0,4E0,1E0,1E1,2.8E1,2.12E2,2E0,2E0,7E0,3E0,2.6E1,2E0,3E1,1.82E2,1E0,1E0,1E0,1E0,2E0,5E0,2.2E1,4E0,1E0,1E0,2.9E1,1E0,1E0,1.81E2,1E0,1E0,2E0,3E0,1.8E1,4E0,2E0,2E0,2.1E1,8E0,1E1,1.71E2],"tree_param":{"num_deleted":"0","num_feature":"7","num_nodes":"45","size_leaf_vector":"1"}},{"base_weights":[7.4403423E-1,-4.3229425E-1,4.2817524E1,4.9110773E-1,-3.8219727E1,6.2416668E1,2.2494532E1,-2.1100998E0,2.2582481E1,-3.7760418E-2,-1.7190382E1,3.6029298E0,2.4484571E1,-2.4160156E1,6.1651043E1,2.191089E0,-3.5919064E1,6.845877E1,-1.6102431E0,1.2539062E0,-1.2708985E0,1.6769532E0,-1.2549024E1,2.3494337E1,4.248633E0,-1.6524161E0,8.266124E1,-5.643125E1,3.8441406E1,1.03714195E2,-1.5390625E0,-3.3621094E1,1.1479779E1,8.9544123E-1,-1.4623726E1,-1.099336E1,3.064651E1,-2.9799862E1,-9.284891E0,-8.9414066E-1,1.4196564E1,4.2231007E1,5.920508E0,5.0674806E0,-3.9939456E0,-9.606836E0,9.682324E0],"categories":[],"categories_nodes":[],"categories_segments":[],"categories_sizes":[],"default_left":[0,0,0,0,0,0,0,0,0,0,0,0,0,0,0,0,0,0,0,0,0,0,0,0,0,0,0,0,0,0,0,0,0,0,0,0,0,0,0,0,0,0,0,0,0,0,0],"id":23,"left_children":[1,3,5,7,9,11,13,15,17,19,-1,-1,-1,21,23,25,27,29,31,-1,-1,-1,-1,-1,-1,33,35,37,39,41,43,-1,45,-1,-1,-1,-1,-1,-1,-1,-1,-1,-1,-1,-1,-1,-1],"loss_changes":[1.2738017E4,8.776911E3,1.3841582E3,1.4183855E4,4.3692607E3,1.923041E3,1.0623674E4,3.2216242E4,2.8966918E4,7.082825E1,0E0,0E0,0E0,1.8108641E3,1.2648848E3,6.1066215E4,4.0301695E4,2.2369852E4,2.7313188E4,0E0,0E0,0E0,0E0,0E0,0E0,4.1419727E4,2.4674914E4,1.8789734E4,2.3481152E3,1.589341E4,1.0928975E3,0E0,1.6412055E4,0E0,0E0,0E0,0E0,0E0,0E0,0E0,0E0,0E0,0E0,0E0,0E0,0E0,0E0],"parents":[2147483647,0,0,1,1,2,2,3,3,4,4,5,5,6,6,7,7,8,8,9,9,13,13,14,14,15,15,16,16,17,17,18,18,25,25,26,26,27,27,28,28,29,29,30,30,32,32],"right_children":[2,4,6,8,10,12,14,16,18,20,-1,-1,-1,22,24,26,28,30,32,-1,-1,-1,-1,-1,-1,34,36,38,40,42,44,-1,46,-1,-1,-1,-1,-1,-1,-1,-1,-1,-1,-1,-1,-1,-1],"split_conditions":[3.39E2,3.1E1,3E0,2.8E1,2E0,2E0,5E0,2.5E1,1.8E2,1E0,-1.7190382E1,3.6029298E0,2.4484571E1,4E0,6E0,2.4E1,2.99E2,5E0,1.81E2,1.2539062E0,-1.2708985E0,1.6769532E0,-1.2549024E1,2.3494337E1,4.248633E0,2.2E1,5E0,6E0,1E0,3E1,6E0,-3.3621094E1,2.9E1,8.9544123E-1,-1.4623726E1,-1.099336E1,3.064651E1,-2.9799862E1,-9.284891E0,-8.9414066E-1,1.4196564E1,4.2231007E1,5.920508E0,5.0674806E0,-3.9939456E0,-9.606836E0,9.682324E0],"split_indices":[5,6,1,6,1,1,1,6,5,1,0,0,0,1,1,6,5,1,5,0,0,0,0,0,0,6,3,3,1,6,1,0,6,0,0,0,0,0,0,0,0,0,0,0,0,0,0],"split_type":[0,0,0,0,0,0,0,0,0,0,0,0,0,0,0,0,0,0,0,0,0,0,0,0,0,0,0,0,0,0,0,0,0,0,0,0,0,0,0,0,0,0,0,0,0,0,0],"sum_hessian":[2.56E2,2.5E2,6E0,2.45E2,5E0,2E0,4E0,2.2E2,2.5E1,2E0,3E0,1E0,1E0,2E0,2E0,1.96E2,2.4E1,8E0,1.7E1,1E0,1E0,1E0,1E0,1E0,1E0,1.88E2,8E0,1.9E1,5E0,5E0,3E0,1E0,1.6E1,1.72E2,1.6E1,1E0,7E0,6E0,1.3E1,1E0,4E0,3E0,2E0,1E0,2E0,5E0,1.1E1],"tree_param":{"num_deleted":"0","num_feature":"7","num_nodes":"47","size_leaf_vector":"1"}},{"base_weights":[6.131672E-1,-3.8717785E-1,3.639509E1,1.1271964E1,-3.7932491E0,5.3054688E1,1.9120312E1,2.0121257E-1,6.3284374E1,-6.012754E1,-7.17141E-1,3.0626955E0,2.0811914E1,-2.0535156E1,5.2402344E1,8.521528E0,-2.8035791E1,-1.9726173E1,8.492795E1,1.672924E1,-4.553029E0,1.425586E0,-1.0666407E1,1.9969923E1,3.6111329E0,-7.8208704E0,3.346962E1,1.2913933E2,-2.6210938E0,5.0256836E1,-1.7727757E1,-1.22220985E2,8.6023027E-1,2.5797555E0,-2.0838282E1,-2.007715E0,1.7890697E1,1.1378711E1,4.9578663E1,-1.8235352E1,2.5780373E1,3.1583673E1,8.1048975E0,-1.6407684E1,5.193926E0,-8.287383E1,-1.5152735E1,1.911293E1,-1.0530884E0],"categories":[],"categories_nodes":[],"categories_segments":[],"categories_sizes":[],"default_left":[0,0,0,0,0,0,0,0,0,0,0,0,0,0,0,0,0,0,0,0,0,0,0,0,0,0,0,0,0,0,0,0,0,0,0,0,0,0,0,0,0,0,0,0,0,0,0,0,0],"id":24,"left_children":[1,3,5,7,9,11,13,15,17,-1,19,-1,-1,21,23,25,-1,-1,27,29,31,-1,-1,-1,-1,33,35,37,39,41,43,45,47,-1,-1,-1,-1,-1,-1,-1,-1,-1,-1,-1,-1,-1,-1,-1,-1],"loss_changes":[9.21322E3,1.0010436E4,1.0001133E3,3.2808805E4,1.1780415E5,1.3892861E3,7.675163E3,3.819938E4,3.3512848E4,0E0,1.2992187E4,0E0,0E0,1.3083556E3,9.139404E2,1.8608785E4,0E0,0E0,3.517446E4,4.132505E4,1.0138291E5,0E0,0E0,0E0,0E0,2.8937041E4,1.9314951E4,1.35004375E4,2.582629E4,2.0173086E4,2.4261713E4,6.336507E4,4.2250516E4,0E0,0E0,0E0,0E0,0E0,0E0,0E0,0E0,0E0,0E0,0E0,0E0,0E0,0E0,0E0,0E0],"parents":[2147483647,0,0,1,1,2,2,3,3,4,4,5,5,6,6,7,7,8,8,10,10,13,13,14,14,15,15,18,18,19,19,20,20,25,25,26,26,27,27,28,28,29,29,30,30,31,31,32,32],"right_children":[2,4,6,8,10,12,14,16,18,-1,20,-1,-1,22,24,26,-1,-1,28,30,32,-1,-1,-1,-1,34,36,38,40,42,44,46,48,-1,-1,-1,-1,-1,-1,-1,-1,-1,-1,-1,-1,-1,-1,-1,-1],"split_conditions":[3.39E2,1.45E2,3E0,1.36E2,1.47E2,2E0,5E0,1.33E2,1E0,-6.012754E1,6E0,3.0626955E0,2.0811914E1,4E0,6E0,1.16E2,-2.8035791E1,-1.9726173E1,4E0,4E0,7E0,1.425586E0,-1.0666407E1,1.9969923E1,3.6111329E0,1.11E2,3E0,1.38E2,6E0,1.86E2,3E0,3E0,1.62E2,2.5797555E0,-2.0838282E1,-2.007715E0,1.7890697E1,1.1378711E1,4.9578663E1,-1.8235352E1,2.5780373E1,3.1583673E1,8.1048975E0,-1.6407684E1,5.193926E0,-8.287383E1,-1.5152735E1,1.911293E1,-1.0530884E0],"split_indices":[5,5,1,5,5,1,1,5,1,0,6,0,0,1,1,5,0,0,1,1,6,0,0,0,0,5,1,5,1,5,6,2,5,0,0,0,0,0,0,0,0,0,0,0,0,0,0,0,0],"split_type":[0,0,0,0,0,0,0,0,0,0,0,0,0,0,0,0,0,0,0,0,0,0,0,0,0,0,0,0,0,0,0,0,0,0,0,0,0,0,0,0,0,0,0,0,0,0,0,0,0],"sum_hessian":[2.56E2,2.5E2,6E0,5.6E1,1.94E2,2E0,4E0,4.7E1,9E0,2E0,1.92E2,1E0,1E0,2E0,2E0,4.4E1,3E0,1E0,8E0,3.4E1,1.58E2,1E0,1E0,1E0,1E0,2.7E1,1.7E1,5E0,3E0,1.7E1,1.7E1,6E0,1.52E2,2.2E1,5E0,7E0,1E1,2E0,3E0,2E0,1E0,4E0,1.3E1,8E0,9E0,1E0,5E0,9E0,1.43E2],"tree_param":{"num_deleted":"0","num_feature":"7","num_nodes":"49","size_leaf_vector":"1"}},{"base_weights":[2.1501854E-1,-2.7764648E1,1.5790063E0,-7.307617E0,-4.1332867E1,4.255593E1,-3.376258E-1,2.8628907E0,-1.25863285E1,-2.5357813E1,-1.6254103E1,2.8449218E0,6.4841515E1,-8.255859E1,1.075342E0,-8.5136724E-1,-4.2941895E0,-1.4653419E1,-7.2749023E0,3.7447266E1,-2.033467E1,-3.3658855E0,9.279765E1,-1.9440104E0,-4.8660355E1,3.355188E1,-1.3131899E0,-3.2135417E0,-2.9188478E0,4.213867E0,1.614756E1,8.007422E0,-9.522071E0,3.331963E1,2.9589844E0,9.1201174E-1,-1.7868165E0,1.2550502E1,1.2037435E2,-2.3345074E1,2.3267121E0,-2.3478518E0,9.0175784E-1,1.2165411E1,-1.3788399E1,4.8327835E1,5.8406253E0,-2.5407813E0,-7.044287E1,6.0721584E1,5.231764E-2],"categories":[],"categories_nodes":[],"categories_segments":[],"categories_sizes":[],"default_left":[0,0,0,0,0,0,0,0,0,0,0,0,0,0,0,0,0,0,0,0,0,0,0,0,0,0,0,0,0,0,0,0,0,0,0,0,0,0,0,0,0,0,0,0,0,0,0,0,0,0,0],"id":25,"left_children":[1,3,5,7,9,11,13,-1,15,17,-1,19,21,23,25,-1,-1,-1,27,29,-1,31,33,35,-1,37,39,41,-1,-1,-1,-1,-1,-1,-1,-1,-1,43,45,47,49,-1,-1,-1,-1,-1,-1,-1,-1,-1,-1],"loss_changes":[9.851969E3,3.0287402E3,1.933464E4,6.538071E2,6.2779297E1,9.550346E3,2.7506215E4,0E0,4.358734E1,1.7682183E3,0E0,1.4757583E4,1.3660055E4,2.5366092E4,1.811816E4,0E0,0E0,0E0,8.609756E0,7.7700146E2,0E0,3.4057598E3,6.479664E3,7.8095314E1,0E0,2.7663502E4,1.7536586E4,1.0958776E2,0E0,0E0,0E0,0E0,0E0,0E0,0E0,0E0,0E0,2.4801143E4,9.189879E3,9.5528164E4,8.092372E4,0E0,0E0,0E0,0E0,0E0,0E0,0E0,0E0,0E0,0E0],"parents":[2147483647,0,0,1,1,2,2,3,3,4,4,5,5,6,6,8,8,9,9,11,11,12,12,13,13,14,14,18,18,19,19,21,21,22,22,23,23,25,25,26,26,27,27,37,37,38,38,39,39,40,40],"right_children":[2,4,6,8,10,12,14,-1,16,18,-1,20,22,24,26,-1,-1,-1,28,30,-1,32,34,36,-1,38,40,42,-1,-1,-1,-1,-1,-1,-1,-1,-1,44,46,48,50,-1,-1,-1,-1,-1,-1,-1,-1,-1,-1],"split_conditions":[1E2,9.4E1,1.1E2,9E1,5E0,2E0,1.13E2,2.8628907E0,2E0,2E0,-1.6254103E1,1.08E2,1.04E2,5E0,1.28E2,-8.5136724E-1,-4.2941895E0,-1.4653419E1,4E0,1.02E2,-2.033467E1,3E0,6E0,4E0,-4.8660355E1,1.26E2,1.58E2,3E0,-2.9188478E0,4.213867E0,1.614756E1,8.007422E0,-9.522071E0,3.331963E1,2.9589844E0,9.1201174E-1,-1.7868165E0,1.22E2,6E0,1.57E2,1.59E2,-2.3478518E0,9.0175784E-1,1.2165411E1,-1.3788399E1,4.8327835E1,5.8406253E0,-2.5407813E0,-7.044287E1,6.0721584E1,5.231764E-2],"split_indices":[5,5,5,5,1,1,5,0,6,1,0,5,5,1,5,0,0,0,1,5,0,1,1,1,0,5,5,1,0,0,0,0,0,0,0,0,0,5,1,5,5,0,0,0,0,0,0,0,0,0,0],"split_type":[0,0,0,0,0,0,0,0,0,0,0,0,0,0,0,0,0,0,0,0,0,0,0,0,0,0,0,0,0,0,0,0,0,0,0,0,0,0,0,0,0,0,0,0,0,0,0,0,0,0,0],"sum_hessian":[2.56E2,1.1E1,2.45E2,5E0,6E0,1E1,2.35E2,1E0,4E0,4E0,2E0,4E0,6E0,3E0,2.32E2,1E0,3E0,1E0,3E0,3E0,1E0,2E0,4E0,2E0,1E0,1.5E1,2.17E2,2E0,1E0,2E0,1E0,1E0,1E0,3E0,1E0,1E0,1E0,1.3E1,2E0,3E1,1.87E2,1E0,1E0,9E0,4E0,1E0,1E0,2.9E1,1E0,1E0,1.86E2],"tree_param":{"num_deleted":"0","num_feature":"7","num_nodes":"51","size_leaf_vector":"1"}},{"base_weights":[1.04024805E-1,-2.541492E0,1.0334722E1,3.6267974E0,-1.5022117E1,1.8509228E1,4.3890625E-1,-5.6825705E0,1.77788E1,2.2759047E0,-2.1294922E1,4.177823E0,5.5606934E1,-2.2558159E1,1.2588005E1,1.6782602E0,-8.6891464E1,3.794242E1,9.443044E-1,-2.0390104E1,6.981875E1,-7.200521E1,-9.92141E0,2.5437935E1,-9.7878065E0,1.0041016E1,8.093828E1,1.0113868E1,-3.3806152E1,-3.9612305E1,2.6603237E1,-4.860742E0,5.2350693E1,-7.5941895E1,-1.699349E1,2.1454508E1,6.504785E1,-6.7451925E0,3.4108074E1,-4.015739E1,4.4009277E1,3.254219E1,7.890625E0,-5.1904693E0,-1.12307816E2,2.2399194E0,-4.0511395E1,-1.2510417E1,7.600098E1,1.6216602E1,-5.983906E1,2.806465E1,-4.8977863E1,3.4231644E1,6.2375E0,4.3351564E0,-5.230013E1,-2.1349611E1,8.257031E0,7.00789E1,2.2050781E0,2.5619057E-1,-5.987637E1,5.161348E1,4.7649903E0,-8.194219E0,5.1914062E0,1.2515177E1,-7.2856936E0,-8.6026285E-3,-1.048465E1,2.3576954E1,2.848125E0,1.4851172E1,-1.8912012E1,2.8803516E1,-1.5986328E0,5.9493165E0,-2.3985353E0,-6.4381935E1,-9.924463E0,-7.3067713E0,3.7648778E0,-8.158009E0,-2.1420313E1,-9.258516E0,1.1886914E1,-5.5078126E-2,3.043711E1,9.595196E0,1.12304695E-1,-2.7672071E1,1.0464844E1,-2.324414E1,1.2041016E0,-6.758594E0,-1.8466114E1,2.8341799E1,6.6976566E0,-1.719922E0,1.1047266E1],"categories":[],"categories_nodes":[],"categories_segments":[],"categories_sizes":[],"default_left":[0,0,0,0,0,0,0,0,0,0,0,0,0,0,0,0,0,0,0,0,0,0,0,0,0,0,0,0,0,0,0,0,0,0,0,0,0,0,0,0,0,0,0,0,0,0,0,0,0,0,0,0,0,0,0,0,0,0,0,0,0,0,0,0,0,0,0,0,0,0,0,0,0,0,0,0,0,0,0,0,0,0,0,0,0,0,0,0,0,0,0,0,0,0,0,0,0,0,0,0,0],"id":26,"left_children":[1,3,5,7,9,11,13,15,17,19,21,23,25,27,29,31,33,35,37,39,41,43,45,47,49,51,53,-1,55,57,59,61,63,-1,65,67,-1,69,71,73,75,-1,77,-1,79,81,83,85,87,89,91,-1,93,-1,-1,-1,95,-1,-1,97,99,-1,-1,-1,-1,-1,-1,-1,-1,-1,-1,-1,-1,-1,-1,-1,-1,-1,-1,-1,-1,-1,-1,-1,-1,-1,-1,-1,-1,-1,-1,-1,-1,-1,-1,-1,-1,-1,-1,-1,-1],"loss_changes":[6.982094E3,1.5836224E4,4.2792266E3,1.8282006E4,7.426951E3,1.5185888E4,7.268803E3,5.035808E4,1.8633613E4,3.0511219E4,2.8123307E4,6.78102E3,8.421268E3,6.836131E3,1.3491005E4,2.6099543E4,7.704115E4,6.908359E4,8.135459E3,2.086231E4,1.1113297E4,1.7899195E4,1.5715367E4,1.821986E4,1.919213E4,2.4295973E4,7.6020273E3,0E0,7.8954277E3,1.0432068E4,1.4695638E4,7.806709E4,3.655179E4,0E0,2.5965225E3,2.325684E4,0E0,4.924183E3,5.8232197E3,2.7740984E4,1.0774422E4,0E0,7.2759937E2,0E0,3.342418E4,8.805679E3,2.995039E3,6.963137E3,7.7760625E3,2.485935E3,1.8563098E4,0E0,4.8421714E3,0E0,0E0,0E0,2.6623438E2,0E0,0E0,3.7152695E3,2.9592356E3,0E0,0E0,0E0,0E0,0E0,0E0,0E0,0E0,0E0,0E0,0E0,0E0,0E0,0E0,0E0,0E0,0E0,0E0,0E0,0E0,0E0,0E0,0E0,0E0,0E0,0E0,0E0,0E0,0E0,0E0,0E0,0E0,0E0,0E0,0E0,0E0,0E0,0E0,0E0,0E0],"parents":[2147483647,0,0,1,1,2,2,3,3,4,4,5,5,6,6,7,7,8,8,9,9,10,10,11,11,12,12,13,13,14,14,15,15,16,16,17,17,18,18,19,19,20,20,21,21,22,22,23,23,24,24,25,25,26,26,28,28,29,29,30,30,31,31,32,32,34,34,35,35,37,37,38,38,39,39,40,40,42,42,44,44,45,45,46,46,47,47,48,48,49,49,50,50,52,52,56,56,59,59,60,60],"right_children":[2,4,6,8,10,12,14,16,18,20,22,24,26,28,30,32,34,36,38,40,42,44,46,48,50,52,54,-1,56,58,60,62,64,-1,66,68,-1,70,72,74,76,-1,78,-1,80,82,84,86,88,90,92,-1,94,-1,-1,-1,96,-1,-1,98,100,-1,-1,-1,-1,-1,-1,-1,-1,-1,-1,-1,-1,-1,-1,-1,-1,-1,-1,-1,-1,-1,-1,-1,-1,-1,-1,-1,-1,-1,-1,-1,-1,-1,-1,-1,-1,-1,-1,-1,-1],"split_conditions":[2.93E2,2.26E2,4E0,1.72E2,1E1,3E0,5E0,1.66E2,1.96E2,8E0,1.4E1,1.4E1,1E1,2E0,5E0,1.58E2,1.67E2,1.95E2,2.21E2,2.78E2,9E0,1.2E1,5E0,2E0,2E0,3.07E2,3.21E2,1.0113868E1,1.1E1,6E0,1.2E1,1.57E2,1.59E2,-7.5941895E1,6E0,1.88E2,6.504785E1,2.17E2,3E0,1E0,4E0,3.254219E1,1E0,-5.1904693E0,2E0,2.36E2,2.7E1,8E0,3.06E2,2.4E1,3.27E2,2.806465E1,1.2E1,3.4231644E1,6.2375E0,4.3351564E0,3.15E2,-2.1349611E1,8.257031E0,6E0,3.3E2,2.5619057E-1,-5.987637E1,5.161348E1,4.7649903E0,-8.194219E0,5.1914062E0,1.2515177E1,-7.2856936E0,-8.6026285E-3,-1.048465E1,2.3576954E1,2.848125E0,1.4851172E1,-1.8912012E1,2.8803516E1,-1.5986328E0,5.9493165E0,-2.3985353E0,-6.4381935E1,-9.924463E0,-7.3067713E0,3.7648778E0,-8.158009E0,-2.1420313E1,-9.258516E0,1.1886914E1,-5.5078126E-2,3.043711E1,9.595196E0,1.12304695E-1,-2.7672071E1,1.0464844E1,-2.324414E1,1.2041016E0,-6.758594E0,-1.8466114E1,2.8341799E1,6.6976566E0,-1.719922E0,1.1047266E1],"split_indices":[5,5,1,5,6,1,1,5,5,6,6,6,6,6,6,5,5,5,5,5,6,6,1,1,1,5,5,0,3,1,6,5,5,0,1,5,0,5,1,1,1,0,1,0,1,5,6,6,5,6,5,0,3,0,0,0,5,0,0,1,5,0,0,0,0,0,0,0,0,0,0,0,0,0,0,0,0,0,0,0,0,0,0,0,0,0,0,0,0,0,0,0,0,0,0,0,0,0,0,0,0],"split_type":[0,0,0,0,0,0,0,0,0,0,0,0,0,0,0,0,0,0,0,0,0,0,0,0,0,0,0,0,0,0,0,0,0,0,0,0,0,0,0,0,0,0,0,0,0,0,0,0,0,0,0,0,0,0,0,0,0,0,0,0,0,0,0,0,0,0,0,0,0,0,0,0,0,0,0,0,0,0,0,0,0,0,0,0,0,0,0,0,0,0,0,0,0,0,0,0,0,0,0,0,0],"sum_hessian":[2.56E2,2.04E2,5.2E1,1.37E2,6.7E1,2.8E1,2.4E1,8.3E1,5.4E1,1.8E1,4.9E1,2.1E1,7E0,8E0,1.6E1,7.7E1,6E0,2.4E1,3E1,1.4E1,4E0,8E0,4.1E1,8E0,1.3E1,3E0,4E0,1E0,7E0,3E0,1.3E1,6.9E1,8E0,1E0,5E0,2.3E1,1E0,2.5E1,5E0,1.1E1,3E0,2E0,2E0,4E0,4E0,3E1,1.1E1,5E0,3E0,9E0,4E0,1E0,2E0,2E0,2E0,2E0,5E0,2E0,1E0,4E0,9E0,6.8E1,1E0,1E0,7E0,4E0,1E0,1.6E1,7E0,2.1E1,4E0,1E0,4E0,2E0,9E0,1E0,2E0,1E0,1E0,1E0,3E0,8E0,2.2E1,9E0,2E0,4E0,1E0,1E0,2E0,4E0,5E0,3E0,1E0,1E0,1E0,2E0,3E0,2E0,2E0,8E0,1E0],"tree_param":{"num_deleted":"0","num_feature":"7","num_nodes":"101","size_leaf_vector":"1"}},{"base_weights":[2.4053076E-1,3.0079472E0,-9.978125E0,4.760517E-1,5.7531467E1,2.80625E1,-1.5208865E1,3.4391148E0,-3.0751265E1,8.838932E1,-3.1381836E0,1.7773438E-1,1.4679493E1,-8.8008095E1,-3.0041335E0,2.6992667E-1,3.3623737E1,-4.1399708E1,-1.542334E1,-8.081837E0,1.1684297E2,1.7929689E0,-8.16862E0,2.6726565E0,-3.902344E0,-4.764512E1,-2.7921093E1,2.549795E1,-7.122954E0,1.9908266E0,-2.9397787E1,1.1683416E1,6.3297993E1,-3.4299183E1,2.175293E1,1.0649414E1,3.849141E1,-3.1582034E0,-5.176758E-1,-2.3964845E-1,-1.0350586E1,-1.7341146E1,1.056543E1,-7.9062896E0,1.1755913E0,2.3485548E1,-1.579314E1,-2.650586E0,9.076466E0,2.3647852E1,4.895508E0,-1.2442325E1,5.617969E0,1.1381055E1,1.2530274E0,-8.752324E0,4.322901E0,1.8141798E1,-2.6509488E-1],"categories":[],"categories_nodes":[],"categories_segments":[],"categories_sizes":[],"default_left":[0,0,0,0,0,0,0,0,0,0,0,0,0,0,0,0,0,0,0,0,0,0,0,0,0,0,0,0,0,0,0,0,0,0,0,0,0,0,0,0,0,0,0,0,0,0,0,0,0,0,0,0,0,0,0,0,0,0,0],"id":27,"left_children":[1,3,5,7,9,11,13,15,17,19,21,23,-1,25,27,29,31,-1,33,-1,35,-1,37,-1,-1,-1,39,-1,41,43,45,47,49,51,53,-1,-1,-1,-1,-1,-1,55,57,-1,-1,-1,-1,-1,-1,-1,-1,-1,-1,-1,-1,-1,-1,-1,-1],"loss_changes":[7.2977876E3,2.7996324E4,1.1370731E4,1.8148816E4,1.7126604E4,4.0648203E3,4.3271867E4,1.71142E4,2.5817648E4,2.2836824E4,2.3222488E2,5.7638306E2,0E0,2.534854E4,1.619054E4,8.380518E3,1.0328525E4,0E0,1.1973844E4,0E0,1.07203125E2,0E0,2.7426163E1,0E0,0E0,0E0,8.648779E2,0E0,7.7744355E3,8.5731E3,2.6650021E4,4.458997E3,3.820246E3,4.9618643E3,1.5482554E3,0E0,0E0,0E0,0E0,0E0,0E0,1.0564721E4,9.195706E3,0E0,0E0,0E0,0E0,0E0,0E0,0E0,0E0,0E0,0E0,0E0,0E0,0E0,0E0,0E0,0E0],"parents":[2147483647,0,0,1,1,2,2,3,3,4,4,5,5,6,6,7,7,8,8,9,9,10,10,11,11,13,13,14,14,15,15,16,16,18,18,20,20,22,22,26,26,28,28,29,29,30,30,31,31,32,32,33,33,34,34,41,41,42,42],"right_children":[2,4,6,8,10,12,14,16,18,20,22,24,-1,26,28,30,32,-1,34,-1,36,-1,38,-1,-1,-1,40,-1,42,44,46,48,50,52,54,-1,-1,-1,-1,-1,-1,56,58,-1,-1,-1,-1,-1,-1,-1,-1,-1,-1,-1,-1,-1,-1,-1,-1],"split_conditions":[2.5E1,2.4E1,1.19E2,2.2E1,9E0,1.16E2,1.49E2,2E1,1.13E2,5E0,2E0,4E0,1.4679493E1,5E0,1.5E2,1.9E1,9E0,-4.1399708E1,5E0,-8.081837E0,1E0,1.7929689E0,5E0,2.6726565E0,-3.902344E0,-4.764512E1,1.2E2,2.549795E1,4E0,1E2,5E0,2.1E1,4E0,3.27E2,6E0,1.0649414E1,3.849141E1,-3.1582034E0,-5.176758E-1,-2.3964845E-1,-1.0350586E1,2.99E2,3E0,-7.9062896E0,1.1755913E0,2.3485548E1,-1.579314E1,-2.650586E0,9.076466E0,2.3647852E1,4.895508E0,-1.2442325E1,5.617969E0,1.1381055E1,1.2530274E0,-8.752324E0,4.322901E0,1.8141798E1,-2.6509488E-1],"split_indices":[6,6,5,6,3,5,5,6,5,3,1,1,0,1,5,6,3,0,1,0,1,0,1,0,0,0,5,0,1,5,3,6,1,5,1,0,0,0,0,0,0,5,2,0,0,0,0,0,0,0,0,0,0,0,0,0,0,0,0],"split_type":[0,0,0,0,0,0,0,0,0,0,0,0,0,0,0,0,0,0,0,0,0,0,0,0,0,0,0,0,0,0,0,0,0,0,0,0,0,0,0,0,0,0,0,0,0,0,0,0,0,0,0,0,0,0,0,0,0,0,0],"sum_hessian":[2.56E2,2.02E2,5.4E1,1.94E2,8E0,6E0,4.8E1,1.78E2,1.6E1,5E0,3E0,3E0,3E0,6E0,4.2E1,1.62E2,1.6E1,1E0,1.5E1,1E0,4E0,1E0,2E0,2E0,1E0,2E0,4E0,1E0,4.1E1,1.54E2,8E0,1E1,6E0,1E1,5E0,1E0,3E0,1E0,1E0,1E0,3E0,2.6E1,1.5E1,9E0,1.45E2,1E0,7E0,5E0,5E0,4E0,2E0,9E0,1E0,2E0,3E0,1.9E1,7E0,2E0,1.3E1],"tree_param":{"num_deleted":"0","num_feature":"7","num_nodes":"59","size_leaf_vector":"1"}},{"base_weights":[2.992157E-1,9.7236174E-1,-2.8022787E1,3.040682E-1,2.4319197E1,2.0761719E0,-4.359131E1,7.776158E0,-1.8882935E0,1.1165626E1,1.1715625E1,2.5297852E0,-1.5955079E0,-1.5225196E1,-3.3169923E0,-1.470246E0,5.0456642E1,-3.8116215E1,1.0845528E-1,-1.25182295E1,3.204427E1,7.6252856E0,-5.453404E1,-1.4558204E1,6.684679E1,1.24491625E1,-2.678856E0,8.4726566E-1,-6.480469E0,1.2539063E1,1.8808595E0,-1.3680848E-1,1.9770588E1,-8.237227E0,-2.444512E1,2.9259571E1,1.2322266E0,9.977768E0,-2.7157552E0,-2.3407284E1,2.636522E-1],"categories":[],"categories_nodes":[],"categories_segments":[],"categories_sizes":[],"default_left":[0,0,0,0,0,0,0,0,0,0,0,0,0,0,0,0,0,0,0,0,0,0,0,0,0,0,0,0,0,0,0,0,0,0,0,0,0,0,0,0,0],"id":28,"left_children":[1,3,5,7,9,11,13,15,17,-1,19,-1,-1,-1,-1,21,23,-1,25,27,29,31,33,-1,35,37,39,-1,-1,-1,-1,-1,-1,-1,-1,-1,-1,-1,-1,-1,-1],"loss_changes":[4.926913E3,3.9244453E3,2.9020806E3,4.0445383E3,7.02022E2,1.8585649E2,3.7057617E2,2.2174078E4,4.7749367E4,0E0,2.8643447E3,0E0,0E0,0E0,0E0,2.310008E4,1.9467516E4,0E0,6.5344565E3,4.7908923E2,4.9206567E2,1.933909E4,2.8706113E3,0E0,1.6925875E4,1.5961873E4,4.1617273E4,0E0,0E0,0E0,0E0,0E0,0E0,0E0,0E0,0E0,0E0,0E0,0E0,0E0,0E0],"parents":[2147483647,0,0,1,1,2,2,3,3,4,4,5,5,6,6,7,7,8,8,10,10,15,15,16,16,18,18,19,19,20,20,21,21,22,22,24,24,25,25,26,26],"right_children":[2,4,6,8,10,12,14,16,18,-1,20,-1,-1,-1,-1,22,24,-1,26,28,30,32,34,-1,36,38,40,-1,-1,-1,-1,-1,-1,-1,-1,-1,-1,-1,-1,-1,-1],"split_conditions":[3.1E1,3.39E2,2E0,1.45E2,3E0,1E0,4E0,1.36E2,1.47E2,1.1165626E1,5E0,2.5297852E0,-1.5955079E0,-1.5225196E1,-3.3169923E0,1.3E2,1E0,-3.8116215E1,6E0,4E0,6E0,1.26E2,5E0,-1.4558204E1,4E0,4E0,7E0,8.4726566E-1,-6.480469E0,1.2539063E1,1.8808595E0,-1.3680848E-1,1.9770588E1,-8.237227E0,-2.444512E1,2.9259571E1,1.2322266E0,9.977768E0,-2.7157552E0,-2.3407284E1,2.636522E-1],"split_indices":[6,5,1,5,1,1,1,5,5,0,1,0,0,0,0,5,1,0,6,1,1,5,1,0,1,1,6,0,0,0,0,0,0,0,0,0,0,0,0,0,0],"split_type":[0,0,0,0,0,0,0,0,0,0,0,0,0,0,0,0,0,0,0,0,0,0,0,0,0,0,0,0,0,0,0,0,0,0,0,0,0,0,0,0,0],"sum_hessian":[2.56E2,2.51E2,5E0,2.45E2,6E0,2E0,3E0,5.5E1,1.9E2,2E0,4E0,1E0,1E0,2E0,1E0,4.6E1,9E0,2E0,1.88E2,2E0,2E0,4E1,6E0,1E0,8E0,3.4E1,1.54E2,1E0,1E0,1E0,1E0,3.6E1,4E0,4E0,2E0,5E0,3E0,1.7E1,1.7E1,6E0,1.48E2],"tree_param":{"num_deleted":"0","num_feature":"7","num_nodes":"41","size_leaf_vector":"1"}},{"base_weights":[1.979724E-2,5.3908157E0,-2.4827216E0,-2.2022535E1,1.0404855E1,2.7740412E1,-4.4705033E0,4.834245E1,-3.9210938E1,7.750635E1,6.2434993E0,2.0828683E0,5.8112892E1,-1.7214577E1,1.24698296E-1,2.130967E1,4.444336E-1,-1.1380022E1,-7.033203E1,1.9123697E1,3.7898148E1,-1.5286841E0,2.9192785E1,1.1638997E1,-8.288086E0,2.0631886E1,2.3208985E0,-4.7909627E0,-7.252197E1,3.5071533E1,-2.2865033E0,-2.444401E1,-1.265625E0,-3.432422E1,-3.0708008E1,1.5989356E1,-7.383692E0,3.1096354E1,-1.4713736E1,4.2506977E1,-2.4705078E1,5.3178515E0,-2.8195314E0,1.7628906E1,-2.4729298E1,-1.551556E2,-1.9118164E1,6.980391E1,-1.7111816E1,-3.7608154E1,3.2688862E-1,2.8740236E-1,-1.1287208E1,7.3789066E-1,-1.3707031E0,-1.2559571E0,-1.1445899E1,-7.3246584E0,2.4816359E1,-3.8243557E1,-1.388337E0,1.2607911E0,2.4063282E1,-1.6987501E1,1.0658203E1,-5.99369E0,2.8852345E1,-1.3726251E1,9.5863285E0,-5.053418E0,-6.47666E1,9.67793E0,-1.0753712E1,-2.531836E0,2.7442385E1,-8.042383E0,1.7964845E0,4.663672E0,-1.73751E1,-1.14693365E1,7.644738E-1],"categories":[],"categories_nodes":[],"categories_segments":[],"categories_sizes":[],"default_left":[0,0,0,0,0,0,0,0,0,0,0,0,0,0,0,0,0,0,0,0,0,0,0,0,0,0,0,0,0,0,0,0,0,0,0,0,0,0,0,0,0,0,0,0,0,0,0,0,0,0,0,0,0,0,0,0,0,0,0,0,0,0,0,0,0,0,0,0,0,0,0,0,0,0,0,0,0,0,0,0,0],"id":29,"left_children":[1,3,5,7,9,11,13,15,17,19,21,23,25,27,29,-1,-1,31,33,35,-1,37,39,41,-1,-1,-1,43,45,47,49,51,53,-1,55,-1,-1,57,59,61,63,-1,-1,65,67,69,71,73,75,77,79,-1,-1,-1,-1,-1,-1,-1,-1,-1,-1,-1,-1,-1,-1,-1,-1,-1,-1,-1,-1,-1,-1,-1,-1,-1,-1,-1,-1,-1,-1],"loss_changes":[3.46774E3,1.1500175E4,1.0697563E4,1.7618555E4,1.906241E4,8.451075E3,9.723371E3,3.0845674E3,8.727033E3,8.985311E3,1.1995152E4,2.3089263E3,2.1530352E3,2.988573E4,1.04446455E4,0E0,0E0,8.940036E2,5.2201113E3,5.7957056E3,0E0,2.2395848E4,1.3249446E4,9.349495E2,0E0,0E0,0E0,1.69755E4,3.2337312E4,1.5694084E4,1.0720175E4,1.0404408E3,7.276795E1,0E0,6.3007983E2,0E0,0E0,4.500656E4,4.1491613E4,1.9882059E4,9.702193E3,0E0,0E0,5.5092242E4,2.5297406E4,2.1563547E4,6.3129316E3,9.249941E3,1.0564592E3,9.536275E3,9.433394E3,0E0,0E0,0E0,0E0,0E0,0E0,0E0,0E0,0E0,0E0,0E0,0E0,0E0,0E0,0E0,0E0,0E0,0E0,0E0,0E0,0E0,0E0,0E0,0E0,0E0,0E0,0E0,0E0,0E0,0E0],"parents":[2147483647,0,0,1,1,2,2,3,3,4,4,5,5,6,6,7,7,8,8,9,9,10,10,11,11,12,12,13,13,14,14,17,17,18,18,19,19,21,21,22,22,23,23,27,27,28,28,29,29,30,30,31,31,32,32,34,34,37,37,38,38,39,39,40,40,43,43,44,44,45,45,46,46,47,47,48,48,49,49,50,50],"right_children":[2,4,6,8,10,12,14,16,18,20,22,24,26,28,30,-1,-1,32,34,36,-1,38,40,42,-1,-1,-1,44,46,48,50,52,54,-1,56,-1,-1,58,60,62,64,-1,-1,66,68,70,72,74,76,78,80,-1,-1,-1,-1,-1,-1,-1,-1,-1,-1,-1,-1,-1,-1,-1,-1,-1,-1,-1,-1,-1,-1,-1,-1,-1,-1,-1,-1,-1,-1],"split_conditions":[1E1,1.24E2,1.08E2,2E0,1.27E2,1.04E2,1.6E1,1E0,9.8E1,5E0,8E0,1.03E2,6E0,1.5E1,1.7E1,2.130967E1,4.444336E-1,2E0,2E0,4E0,3.7898148E1,1.88E2,3.13E2,4E0,-8.288086E0,2.0631886E1,2.3208985E0,2.24E2,3E0,4E0,1.8E1,1E0,4E0,-3.432422E1,3E0,1.5989356E1,-7.383692E0,1.58E2,2.14E2,2.21E2,5E0,5.3178515E0,-2.8195314E0,1.93E2,3.15E2,1E0,2E0,1E0,8E0,2E0,1.13E2,